<?xml version="1.0"?>
<opencv_storage>
<cascade>
  <stageType>BOOST</stageType>
  <featureType>HAAR</featureType>
  <height>24</height>
  <width>24</width>
  <stageParams>
    <boostType>GAB</boostType>
    <minHitRate>9.9500000476837158e-01</minHitRate>
    <maxFalseAlarm>5.0000000000000000e-01</maxFalseAlarm>
    <weightTrimRate>9.4999998807907104e-01</weightTrimRate>
    <maxDepth>1</maxDepth>
    <maxWeakCount>100</maxWeakCount></stageParams>
  <featureParams>
    <maxCatCount>0</maxCatCount>
    <featSize>1</featSize>
    <mode>BASIC</mode></featureParams>
  <stageNum>20</stageNum>
  <stages>
    <!-- stage 0 -->
    <_>
      <maxWeakCount>8</maxWeakCount>
      <stageThreshold>-7.9469299316406250e-01</stageThreshold>
      <weakClassifiers>
        <_>
          <internalNodes>
            0 -1 3 8.6582258343696594e-02</internalNodes>
          <leafValues>
            5.5298310518264771e-01 -7.9783391952514648e-01</leafValues></_>
        <_>
          <internalNodes>
            0 -1 204 -5.7561211287975311e-03</internalNodes>
          <leafValues>
            8.6449104547500610e-01 -2.4493294954299927e-01</leafValues></_>
        <_>
          <internalNodes>
            0 -1 244 -5.4798484779894352e-03</internalNodes>
          <leafValues>
            8.9477694034576416e-01 -2.4065771698951721e-01</leafValues></_>
        <_>
          <internalNodes>
            0 -1 125 5.3736586123704910e-03</internalNodes>
          <leafValues>
            -2.3201243579387665e-01 8.6710113286972046e-01</leafValues></_>
        <_>
          <internalNodes>
            0 -1 76 -5.2805212326347828e-03</internalNodes>
          <leafValues>
            4.0725696086883545e-01 -5.0159150362014771e-01</leafValues></_>
        <_>
          <internalNodes>
            0 -1 187 -8.3200335502624512e-03</internalNodes>
          <leafValues>
            8.8116681575775146e-01 -2.4128712713718414e-01</leafValues></_>
        <_>
          <internalNodes>
            0 -1 205 -6.5340735018253326e-03</internalNodes>
          <leafValues>
            8.7128794193267822e-01 -1.8221491575241089e-01</leafValues></_>
        <_>
          <internalNodes>
            0 -1 97 -3.5388357937335968e-02</internalNodes>
          <leafValues>
            -8.2304358482360840e-01 2.9502055048942566e-01</leafValues></_></weakClassifiers></_>
    <!-- stage 1 -->
    <_>
      <maxWeakCount>10</maxWeakCount>
      <stageThreshold>-1.2253242731094360e+00</stageThreshold>
      <weakClassifiers>
        <_>
          <internalNodes>
            0 -1 264 -6.2174135819077492e-03</internalNodes>
          <leafValues>
            5.0320804119110107e-01 -4.8220065236091614e-01</leafValues></_>
        <_>
          <internalNodes>
            0 -1 18 -3.9553850889205933e-02</internalNodes>
          <leafValues>
            5.5950856208801270e-01 -3.3042868971824646e-01</leafValues></_>
        <_>
          <internalNodes>
            0 -1 99 -1.2728491798043251e-02</internalNodes>
          <leafValues>
            7.5174123048782349e-01 -2.3607280850410461e-01</leafValues></_>
        <_>
          <internalNodes>
            0 -1 55 -1.2484778650105000e-02</internalNodes>
          <leafValues>
            7.4632549285888672e-01 -2.5427356362342834e-01</leafValues></_>
        <_>
          <internalNodes>
            0 -1 155 -1.1344153434038162e-02</internalNodes>
          <leafValues>
            7.8045308589935303e-01 -1.9871060550212860e-01</leafValues></_>
        <_>
          <internalNodes>
            0 -1 101 2.4629994295537472e-03</internalNodes>
          <leafValues>
            3.1552141904830933e-01 -7.2059410810470581e-01</leafValues></_>
        <_>
          <internalNodes>
            0 -1 42 -1.1067073792219162e-03</internalNodes>
          <leafValues>
            5.2328854799270630e-01 -3.1422910094261169e-01</leafValues></_>
        <_>
          <internalNodes>
            0 -1 284 -1.9356446340680122e-02</internalNodes>
          <leafValues>
            2.3433497548103333e-01 -5.9631556272506714e-01</leafValues></_>
        <_>
          <internalNodes>
            0 -1 199 -2.5339592248201370e-02</internalNodes>
          <leafValues>
            5.5398249626159668e-01 -2.6218709349632263e-01</leafValues></_>
        <_>
          <internalNodes>
            0 -1 231 1.5755870845168829e-03</internalNodes>
          <leafValues>
            2.1140798926353455e-01 -6.3418531417846680e-01</leafValues></_></weakClassifiers></_>
    <!-- stage 2 -->
    <_>
      <maxWeakCount>13</maxWeakCount>
      <stageThreshold>-5.0740480422973633e-01</stageThreshold>
      <weakClassifiers>
        <_>
          <internalNodes>
            0 -1 30 -3.8085456937551498e-02</internalNodes>
          <leafValues>
            8.1181621551513672e-01 3.0752915889024734e-02</leafValues></_>
        <_>
          <internalNodes>
            0 -1 34 -3.9948292076587677e-02</internalNodes>
          <leafValues>
            3.1445071101188660e-01 -5.1748788356781006e-01</leafValues></_>
        <_>
          <internalNodes>
            0 -1 295 4.5998491346836090e-02</internalNodes>
          <leafValues>
            -2.5134840607643127e-01 6.1858475208282471e-01</leafValues></_>
        <_>
          <internalNodes>
            0 -1 224 -3.5456160549074411e-03</internalNodes>
          <leafValues>
            5.8988976478576660e-01 -2.2431573271751404e-01</leafValues></_>
        <_>
          <internalNodes>
            0 -1 322 -5.5896397680044174e-04</internalNodes>
          <leafValues>
            -7.1976387500762939e-01 1.8632222712039948e-01</leafValues></_>
        <_>
          <internalNodes>
            0 -1 196 8.5910903289914131e-03</internalNodes>
          <leafValues>
            -1.9200535118579865e-01 7.3755842447280884e-01</leafValues></_>
        <_>
          <internalNodes>
            0 -1 171 -4.9996599555015564e-03</internalNodes>
          <leafValues>
            5.7958394289016724e-01 -2.0645597577095032e-01</leafValues></_>
        <_>
          <internalNodes>
            0 -1 141 6.0153231024742126e-03</internalNodes>
          <leafValues>
            -2.0843699574470520e-01 6.3577353954315186e-01</leafValues></_>
        <_>
          <internalNodes>
            0 -1 249 -2.1753343753516674e-03</internalNodes>
          <leafValues>
            5.9364491701126099e-01 -2.0198935270309448e-01</leafValues></_>
        <_>
          <internalNodes>
            0 -1 156 -9.6079148352146149e-03</internalNodes>
          <leafValues>
            5.4433047771453857e-01 -1.9443747401237488e-01</leafValues></_>
        <_>
          <internalNodes>
            0 -1 188 6.7114261910319328e-03</internalNodes>
          <leafValues>
            -1.4162856340408325e-01 7.1815150976181030e-01</leafValues></_>
        <_>
          <internalNodes>
            0 -1 162 4.5988819329068065e-04</internalNodes>
          <leafValues>
            1.6912740468978882e-01 -7.4143290519714355e-01</leafValues></_>
        <_>
          <internalNodes>
            0 -1 336 1.2897787615656853e-02</internalNodes>
          <leafValues>
            -2.3470568656921387e-01 5.2225255966186523e-01</leafValues></_></weakClassifiers></_>
    <!-- stage 3 -->
    <_>
      <maxWeakCount>12</maxWeakCount>
      <stageThreshold>-7.2959399223327637e-01</stageThreshold>
      <weakClassifiers>
        <_>
          <internalNodes>
            0 -1 209 1.7749464605003595e-03</internalNodes>
          <leafValues>
            -1.1908645927906036e-01 6.0101652145385742e-01</leafValues></_>
        <_>
          <internalNodes>
            0 -1 26 -5.0690874457359314e-02</internalNodes>
          <leafValues>
            7.9788458347320557e-01 -1.3414461910724640e-01</leafValues></_>
        <_>
          <internalNodes>
            0 -1 137 -2.5561675429344177e-03</internalNodes>
          <leafValues>
            -6.8235242366790771e-01 1.5370410680770874e-01</leafValues></_>
        <_>
          <internalNodes>
            0 -1 285 1.3899696990847588e-02</internalNodes>
          <leafValues>
            1.1238795518875122e-01 -8.1541442871093750e-01</leafValues></_>
        <_>
          <internalNodes>
            0 -1 52 -5.5769653990864754e-03</internalNodes>
          <leafValues>
            5.2892869710922241e-01 -2.0438736677169800e-01</leafValues></_>
        <_>
          <internalNodes>
            0 -1 229 -8.4189977496862411e-04</internalNodes>
          <leafValues>
            -7.9539203643798828e-01 1.4098298549652100e-01</leafValues></_>
        <_>
          <internalNodes>
            0 -1 312 5.8677704073488712e-03</internalNodes>
          <leafValues>
            -2.4444364011287689e-01 4.3130877614021301e-01</leafValues></_>
        <_>
          <internalNodes>
            0 -1 259 1.5623669605702162e-04</internalNodes>
          <leafValues>
            1.7260921001434326e-01 -6.7763561010360718e-01</leafValues></_>
        <_>
          <internalNodes>
            0 -1 263 -1.5029842033982277e-03</internalNodes>
          <leafValues>
            1.7180290818214417e-01 -5.2632671594619751e-01</leafValues></_>
        <_>
          <internalNodes>
            0 -1 349 2.0018341019749641e-03</internalNodes>
          <leafValues>
            -1.7519392073154449e-01 6.2292659282684326e-01</leafValues></_>
        <_>
          <internalNodes>
            0 -1 212 1.5476252883672714e-02</internalNodes>
          <leafValues>
            2.2375090420246124e-01 -4.7527939081192017e-01</leafValues></_>
        <_>
          <internalNodes>
            0 -1 247 -1.2645025271922350e-03</internalNodes>
          <leafValues>
            -8.7433952093124390e-01 1.0879898816347122e-01</leafValues></_></weakClassifiers></_>
    <!-- stage 4 -->
    <_>
      <maxWeakCount>13</maxWeakCount>
      <stageThreshold>-1.0758457183837891e+00</stageThreshold>
      <weakClassifiers>
        <_>
          <internalNodes>
            0 -1 12 -9.7798034548759460e-02</internalNodes>
          <leafValues>
            7.2927242517471313e-01 -3.8318913429975510e-02</leafValues></_>
        <_>
          <internalNodes>
            0 -1 193 1.8081791931763291e-03</internalNodes>
          <leafValues>
            -2.6559624075889587e-01 5.3493171930313110e-01</leafValues></_>
        <_>
          <internalNodes>
            0 -1 96 5.0500836223363876e-03</internalNodes>
          <leafValues>
            -3.5412415862083435e-01 4.6124443411827087e-01</leafValues></_>
        <_>
          <internalNodes>
            0 -1 233 2.6900807279162109e-04</internalNodes>
          <leafValues>
            1.3263271749019623e-01 -9.0319359302520752e-01</leafValues></_>
        <_>
          <internalNodes>
            0 -1 9 -4.2044326663017273e-02</internalNodes>
          <leafValues>
            7.5512820482254028e-01 -1.8891225755214691e-01</leafValues></_>
        <_>
          <internalNodes>
            0 -1 118 -8.1612356007099152e-02</internalNodes>
          <leafValues>
            4.2335775494575500e-01 -3.3350285887718201e-01</leafValues></_>
        <_>
          <internalNodes>
            0 -1 158 -1.2738993391394615e-02</internalNodes>
          <leafValues>
            5.5206686258316040e-01 -2.0635013282299042e-01</leafValues></_>
        <_>
          <internalNodes>
            0 -1 210 2.1600534091703594e-04</internalNodes>
          <leafValues>
            1.5991833806037903e-01 -7.2321200370788574e-01</leafValues></_>
        <_>
          <internalNodes>
            0 -1 1 6.7952224053442478e-03</internalNodes>
          <leafValues>
            -2.3558193445205688e-01 5.2385181188583374e-01</leafValues></_>
        <_>
          <internalNodes>
            0 -1 252 -5.2655516192317009e-03</internalNodes>
          <leafValues>
            4.5668885111808777e-01 -2.7519449591636658e-01</leafValues></_>
        <_>
          <internalNodes>
            0 -1 176 -1.7480632523074746e-03</internalNodes>
          <leafValues>
            -7.5943106412887573e-01 1.8675735592842102e-01</leafValues></_>
        <_>
          <internalNodes>
            0 -1 5 1.7475184053182602e-02</internalNodes>
          <leafValues>
            -2.2962683439254761e-01 5.4652172327041626e-01</leafValues></_>
        <_>
          <internalNodes>
            0 -1 245 2.9145260341465473e-03</internalNodes>
          <leafValues>
            -2.2847421467304230e-01 4.7067829966545105e-01</leafValues></_></weakClassifiers></_>
    <!-- stage 5 -->
    <_>
      <maxWeakCount>12</maxWeakCount>
      <stageThreshold>-1.0894293785095215e+00</stageThreshold>
      <weakClassifiers>
        <_>
          <internalNodes>
            0 -1 80 1.0407502995803952e-03</internalNodes>
          <leafValues>
            -3.8241308927536011e-01 6.4434689283370972e-01</leafValues></_>
        <_>
          <internalNodes>
            0 -1 232 1.0849880054593086e-03</internalNodes>
          <leafValues>
            -3.2690417766571045e-01 5.2030062675476074e-01</leafValues></_>
        <_>
          <internalNodes>
            0 -1 311 -6.0598743148148060e-03</internalNodes>
          <leafValues>
            5.4942345619201660e-01 -2.2423996031284332e-01</leafValues></_>
        <_>
          <internalNodes>
            0 -1 130 -4.6607911586761475e-02</internalNodes>
          <leafValues>
            5.7759672403335571e-01 -2.4634069204330444e-01</leafValues></_>
        <_>
          <internalNodes>
            0 -1 83 8.1214420497417450e-03</internalNodes>
          <leafValues>
            -2.2288115322589874e-01 5.5500793457031250e-01</leafValues></_>
        <_>
          <internalNodes>
            0 -1 61 -8.9091452537104487e-05</internalNodes>
          <leafValues>
            3.2276549935340881e-01 -3.9197862148284912e-01</leafValues></_>
        <_>
          <internalNodes>
            0 -1 307 -3.4501357004046440e-04</internalNodes>
          <leafValues>
            -5.9603798389434814e-01 2.2038330137729645e-01</leafValues></_>
        <_>
          <internalNodes>
            0 -1 308 -1.5701277181506157e-02</internalNodes>
          <leafValues>
            6.7578470706939697e-01 -1.8828821182250977e-01</leafValues></_>
        <_>
          <internalNodes>
            0 -1 228 -5.4755469318479300e-04</internalNodes>
          <leafValues>
            -7.3432624340057373e-01 1.9442223012447357e-01</leafValues></_>
        <_>
          <internalNodes>
            0 -1 40 -6.9358432665467262e-03</internalNodes>
          <leafValues>
            4.0510782599449158e-01 -2.9121977090835571e-01</leafValues></_>
        <_>
          <internalNodes>
            0 -1 330 7.7752992510795593e-03</internalNodes>
          <leafValues>
            -2.9819604754447937e-01 3.7125453352928162e-01</leafValues></_>
        <_>
          <internalNodes>
            0 -1 228 3.0482490547001362e-04</internalNodes>
          <leafValues>
            1.8843758106231689e-01 -6.7763710021972656e-01</leafValues></_></weakClassifiers></_>
    <!-- stage 6 -->
    <_>
      <maxWeakCount>20</maxWeakCount>
      <stageThreshold>-9.2978328466415405e-01</stageThreshold>
      <weakClassifiers>
        <_>
          <internalNodes>
            0 -1 47 -5.9861186891794205e-03</internalNodes>
          <leafValues>
            7.2635817527770996e-01 4.3189369142055511e-02</leafValues></_>
        <_>
          <internalNodes>
            0 -1 12 -1.1931665241718292e-01</internalNodes>
          <leafValues>
            5.2005004882812500e-01 -2.1006999909877777e-01</leafValues></_>
        <_>
          <internalNodes>
            0 -1 45 -1.7116452800109982e-03</internalNodes>
          <leafValues>
            5.7496595382690430e-01 -1.5351338684558868e-01</leafValues></_>
        <_>
          <internalNodes>
            0 -1 281 -1.0305671021342278e-03</internalNodes>
          <leafValues>
            -6.3581734895706177e-01 1.2862563133239746e-01</leafValues></_>
        <_>
          <internalNodes>
            0 -1 142 -1.1321543715894222e-02</internalNodes>
          <leafValues>
            5.3287863731384277e-01 -1.9815199077129364e-01</leafValues></_>
        <_>
          <internalNodes>
            0 -1 283 1.4163643121719360e-02</internalNodes>
          <leafValues>
            1.3079434633255005e-01 -7.5106757879257202e-01</leafValues></_>
        <_>
          <internalNodes>
            0 -1 128 1.2214621528983116e-02</internalNodes>
          <leafValues>
            -1.7971336841583252e-01 5.7393819093704224e-01</leafValues></_>
        <_>
          <internalNodes>
            0 -1 341 8.9047418441623449e-04</internalNodes>
          <leafValues>
            -2.7053439617156982e-01 3.1872645020484924e-01</leafValues></_>
        <_>
          <internalNodes>
            0 -1 65 7.7024643542245030e-04</internalNodes>
          <leafValues>
            2.3199932277202606e-01 -4.1713163256645203e-01</leafValues></_>
        <_>
          <internalNodes>
            0 -1 163 1.0460994672030210e-03</internalNodes>
          <leafValues>
            8.9478634297847748e-02 -7.7935039997100830e-01</leafValues></_>
        <_>
          <internalNodes>
            0 -1 344 -3.7322104908525944e-03</internalNodes>
          <leafValues>
            5.0393247604370117e-01 -1.7933279275894165e-01</leafValues></_>
        <_>
          <internalNodes>
            0 -1 148 1.5864221379160881e-02</internalNodes>
          <leafValues>
            -9.7294352948665619e-02 8.0340319871902466e-01</leafValues></_>
        <_>
          <internalNodes>
            0 -1 86 -1.1690634302794933e-02</internalNodes>
          <leafValues>
            -6.8074011802673340e-01 1.4396171271800995e-01</leafValues></_>
        <_>
          <internalNodes>
            0 -1 72 -1.5531699173152447e-03</internalNodes>
          <leafValues>
            4.2088147997856140e-01 -1.9956408441066742e-01</leafValues></_>
        <_>
          <internalNodes>
            0 -1 217 -1.6966140829026699e-03</internalNodes>
          <leafValues>
            -6.7231148481369019e-01 1.3301301002502441e-01</leafValues></_>
        <_>
          <internalNodes>
            0 -1 23 2.4562063626945019e-03</internalNodes>
          <leafValues>
            -1.0575498640537262e-01 8.1975954771041870e-01</leafValues></_>
        <_>
          <internalNodes>
            0 -1 167 -2.6927059516310692e-03</internalNodes>
          <leafValues>
            -5.8615076541900635e-01 1.5386524796485901e-01</leafValues></_>
        <_>
          <internalNodes>
            0 -1 337 -1.6887616366147995e-03</internalNodes>
          <leafValues>
            5.3904175758361816e-01 -1.6437970101833344e-01</leafValues></_>
        <_>
          <internalNodes>
            0 -1 286 -1.0442297905683517e-02</internalNodes>
          <leafValues>
            4.1676080226898193e-01 -1.8968370556831360e-01</leafValues></_>
        <_>
          <internalNodes>
            0 -1 271 -3.9629184175282717e-04</internalNodes>
          <leafValues>
            -9.4687062501907349e-01 8.2852676510810852e-02</leafValues></_></weakClassifiers></_>
    <!-- stage 7 -->
    <_>
      <maxWeakCount>15</maxWeakCount>
      <stageThreshold>-9.6724790334701538e-01</stageThreshold>
      <weakClassifiers>
        <_>
          <internalNodes>
            0 -1 85 3.5765874199569225e-03</internalNodes>
          <leafValues>
            -1.2787723913788795e-02 6.6343039274215698e-01</leafValues></_>
        <_>
          <internalNodes>
            0 -1 7 -4.0607824921607971e-03</internalNodes>
          <leafValues>
            5.5806863307952881e-01 -1.7361506819725037e-01</leafValues></_>
        <_>
          <internalNodes>
            0 -1 207 -4.7904686653055251e-04</internalNodes>
          <leafValues>
            -7.1482986211776733e-01 1.6087746620178223e-01</leafValues></_>
        <_>
          <internalNodes>
            0 -1 112 -5.7479306124150753e-03</internalNodes>
          <leafValues>
            3.9354604482650757e-01 -3.4195458889007568e-01</leafValues></_>
        <_>
          <internalNodes>
            0 -1 127 1.6507629305124283e-02</internalNodes>
          <leafValues>
            -1.3083820044994354e-01 6.5091848373413086e-01</leafValues></_>
        <_>
          <internalNodes>
            0 -1 10 -3.0863951891660690e-02</internalNodes>
          <leafValues>
            3.5747817158699036e-01 -3.3827227354049683e-01</leafValues></_>
        <_>
          <internalNodes>
            0 -1 234 -3.5114062484353781e-04</internalNodes>
          <leafValues>
            -8.6271697282791138e-01 1.1410855501890182e-01</leafValues></_>
        <_>
          <internalNodes>
            0 -1 254 -4.9360683187842369e-03</internalNodes>
          <leafValues>
            3.3104655146598816e-01 -2.9878592491149902e-01</leafValues></_>
        <_>
          <internalNodes>
            0 -1 77 -8.3857905119657516e-03</internalNodes>
          <leafValues>
            2.2812008857727051e-01 -4.5015099644660950e-01</leafValues></_>
        <_>
          <internalNodes>
            0 -1 67 8.4979878738522530e-04</internalNodes>
          <leafValues>
            1.7881374061107635e-01 -5.0994151830673218e-01</leafValues></_>
        <_>
          <internalNodes>
            0 -1 238 -4.1490602307021618e-03</internalNodes>
          <leafValues>
            2.2865462303161621e-01 -4.0943723917007446e-01</leafValues></_>
        <_>
          <internalNodes>
            0 -1 246 -1.7078447854146361e-04</internalNodes>
          <leafValues>
            -5.6525051593780518e-01 1.5483112633228302e-01</leafValues></_>
        <_>
          <internalNodes>
            0 -1 152 -2.7391952462494373e-03</internalNodes>
          <leafValues>
            -4.8001921176910400e-01 1.6406723856925964e-01</leafValues></_>
        <_>
          <internalNodes>
            0 -1 20 5.2544055506587029e-03</internalNodes>
          <leafValues>
            -1.7046213150024414e-01 4.8554578423500061e-01</leafValues></_>
        <_>
          <internalNodes>
            0 -1 236 -4.3925091624259949e-02</internalNodes>
          <leafValues>
            4.9603435397148132e-01 -1.5153504908084869e-01</leafValues></_></weakClassifiers></_>
    <!-- stage 8 -->
    <_>
      <maxWeakCount>21</maxWeakCount>
      <stageThreshold>-9.1186213493347168e-01</stageThreshold>
      <weakClassifiers>
        <_>
          <internalNodes>
            0 -1 43 -8.3587113767862320e-03</internalNodes>
          <leafValues>
            6.8000000715255737e-01 6.6666670143604279e-02</leafValues></_>
        <_>
          <internalNodes>
            0 -1 301 1.9233248895034194e-04</internalNodes>
          <leafValues>
            -3.5296094417572021e-01 2.6983237266540527e-01</leafValues></_>
        <_>
          <internalNodes>
            0 -1 291 -3.4685374703258276e-03</internalNodes>
          <leafValues>
            1.9498769938945770e-01 -3.9797154068946838e-01</leafValues></_>
        <_>
          <internalNodes>
            0 -1 172 1.1901317164301872e-02</internalNodes>
          <leafValues>
            -1.4080813527107239e-01 6.3211846351623535e-01</leafValues></_>
        <_>
          <internalNodes>
            0 -1 206 -3.5793688148260117e-03</internalNodes>
          <leafValues>
            2.9067486524581909e-01 -3.0083546042442322e-01</leafValues></_>
        <_>
          <internalNodes>
            0 -1 21 -5.3044748492538929e-03</internalNodes>
          <leafValues>
            2.6071956753730774e-01 -2.9970329999923706e-01</leafValues></_>
        <_>
          <internalNodes>
            0 -1 289 6.4788712188601494e-04</internalNodes>
          <leafValues>
            1.1023720353841782e-01 -7.2742044925689697e-01</leafValues></_>
        <_>
          <internalNodes>
            0 -1 56 -5.2639108616858721e-04</internalNodes>
          <leafValues>
            4.9070075154304504e-01 -1.7683845758438110e-01</leafValues></_>
        <_>
          <internalNodes>
            0 -1 351 -1.6458806931041181e-04</internalNodes>
          <leafValues>
            -5.7195252180099487e-01 1.4301092922687531e-01</leafValues></_>
        <_>
          <internalNodes>
            0 -1 309 4.0897570550441742e-02</internalNodes>
          <leafValues>
            -1.5249973535537720e-01 5.3599065542221069e-01</leafValues></_>
        <_>
          <internalNodes>
            0 -1 64 1.3582583051174879e-04</internalNodes>
          <leafValues>
            2.0385721325874329e-01 -3.6282390356063843e-01</leafValues></_>
        <_>
          <internalNodes>
            0 -1 334 -4.7908071428537369e-03</internalNodes>
          <leafValues>
            7.0860797166824341e-01 -1.1186775565147400e-01</leafValues></_>
        <_>
          <internalNodes>
            0 -1 267 -8.9154345914721489e-04</internalNodes>
          <leafValues>
            -5.5662530660629272e-01 1.4595682919025421e-01</leafValues></_>
        <_>
          <internalNodes>
            0 -1 109 8.5954889655113220e-03</internalNodes>
          <leafValues>
            -1.3202996551990509e-01 5.5822092294692993e-01</leafValues></_>
        <_>
          <internalNodes>
            0 -1 122 -3.3201151527464390e-03</internalNodes>
          <leafValues>
            3.8744875788688660e-01 -2.3613284528255463e-01</leafValues></_>
        <_>
          <internalNodes>
            0 -1 91 1.0154087841510773e-01</internalNodes>
          <leafValues>
            9.4803713262081146e-02 -9.7246569395065308e-01</leafValues></_>
        <_>
          <internalNodes>
            0 -1 198 -1.1093996465206146e-02</internalNodes>
          <leafValues>
            6.1596512794494629e-01 -1.4077737927436829e-01</leafValues></_>
        <_>
          <internalNodes>
            0 -1 260 -5.8962102048099041e-04</internalNodes>
          <leafValues>
            -8.0374670028686523e-01 8.9283511042594910e-02</leafValues></_>
        <_>
          <internalNodes>
            0 -1 0 4.3293121270835400e-03</internalNodes>
          <leafValues>
            -1.5999726951122284e-01 4.6400389075279236e-01</leafValues></_>
        <_>
          <internalNodes>
            0 -1 89 2.2644578712061048e-04</internalNodes>
          <leafValues>
            -1.6421659290790558e-01 3.9399975538253784e-01</leafValues></_>
        <_>
          <internalNodes>
            0 -1 53 -5.1938151009380817e-03</internalNodes>
          <leafValues>
            3.5965296626091003e-01 -1.9166192412376404e-01</leafValues></_></weakClassifiers></_>
    <!-- stage 9 -->
    <_>
      <maxWeakCount>18</maxWeakCount>
      <stageThreshold>-6.9730460643768311e-01</stageThreshold>
      <weakClassifiers>
        <_>
          <internalNodes>
            0 -1 279 -5.6315882829949260e-04</internalNodes>
          <leafValues>
            -4.9382716417312622e-01 3.8772213459014893e-01</leafValues></_>
        <_>
          <internalNodes>
            0 -1 24 -5.1497733220458031e-03</internalNodes>
          <leafValues>
            5.0048446655273438e-01 -1.6866335272789001e-01</leafValues></_>
        <_>
          <internalNodes>
            0 -1 143 -9.6300442237406969e-04</internalNodes>
          <leafValues>
            -6.8838769197463989e-01 1.2156170606613159e-01</leafValues></_>
        <_>
          <internalNodes>
            0 -1 78 -2.3297118023037910e-03</internalNodes>
          <leafValues>
            4.4278338551521301e-01 -1.8850032985210419e-01</leafValues></_>
        <_>
          <internalNodes>
            0 -1 44 -4.8097282648086548e-02</internalNodes>
          <leafValues>
            -6.7845600843429565e-01 9.3948818743228912e-02</leafValues></_>
        <_>
          <internalNodes>
            0 -1 348 7.0642530918121338e-03</internalNodes>
          <leafValues>
            -1.4807346463203430e-01 5.3643959760665894e-01</leafValues></_>
        <_>
          <internalNodes>
            0 -1 150 -6.8571424344554543e-04</internalNodes>
          <leafValues>
            -6.4307326078414917e-01 1.1604266613721848e-01</leafValues></_>
        <_>
          <internalNodes>
            0 -1 46 -2.9374619480222464e-03</internalNodes>
          <leafValues>
            2.3365601897239685e-01 -2.9666674137115479e-01</leafValues></_>
        <_>
          <internalNodes>
            0 -1 241 -4.0348828770220280e-04</internalNodes>
          <leafValues>
            3.6524191498756409e-01 -2.1008998155593872e-01</leafValues></_>
        <_>
          <internalNodes>
            0 -1 120 -9.7823794931173325e-03</internalNodes>
          <leafValues>
            5.2587568759918213e-01 -1.7600029706954956e-01</leafValues></_>
        <_>
          <internalNodes>
            0 -1 69 1.3372973538935184e-02</internalNodes>
          <leafValues>
            -1.0061136633157730e-01 6.0607630014419556e-01</leafValues></_>
        <_>
          <internalNodes>
            0 -1 306 -2.2095008753240108e-03</internalNodes>
          <leafValues>
            4.0058842301368713e-01 -1.7998562753200531e-01</leafValues></_>
        <_>
          <internalNodes>
            0 -1 123 -2.0373841747641563e-02</internalNodes>
          <leafValues>
            -7.0095860958099365e-01 1.0136500746011734e-01</leafValues></_>
        <_>
          <internalNodes>
            0 -1 347 -8.3085231017321348e-04</internalNodes>
          <leafValues>
            4.1270098090171814e-01 -1.8562638759613037e-01</leafValues></_>
        <_>
          <internalNodes>
            0 -1 208 6.4370967447757721e-04</internalNodes>
          <leafValues>
            1.1697880923748016e-01 -7.1753126382827759e-01</leafValues></_>
        <_>
          <internalNodes>
            0 -1 106 -6.1712739989161491e-03</internalNodes>
          <leafValues>
            4.1215568780899048e-01 -1.7918081581592560e-01</leafValues></_>
        <_>
          <internalNodes>
            0 -1 87 1.8179904436692595e-03</internalNodes>
          <leafValues>
            -1.5280403196811676e-01 4.4951361417770386e-01</leafValues></_>
        <_>
          <internalNodes>
            0 -1 139 1.6949202399700880e-03</internalNodes>
          <leafValues>
            -2.7473503351211548e-01 2.6738420128822327e-01</leafValues></_></weakClassifiers></_>
    <!-- stage 10 -->
    <_>
      <maxWeakCount>21</maxWeakCount>
      <stageThreshold>-7.2788536548614502e-01</stageThreshold>
      <weakClassifiers>
        <_>
          <internalNodes>
            0 -1 129 7.8310398384928703e-04</internalNodes>
          <leafValues>
            3.7192705273628235e-01 -4.9640288949012756e-01</leafValues></_>
        <_>
          <internalNodes>
            0 -1 340 -2.0040939562022686e-03</internalNodes>
          <leafValues>
            6.0450005531311035e-01 -9.3808479607105255e-02</leafValues></_>
        <_>
          <internalNodes>
            0 -1 157 -2.1453572437167168e-02</internalNodes>
          <leafValues>
            6.3790762424468994e-01 -1.5958520770072937e-01</leafValues></_>
        <_>
          <internalNodes>
            0 -1 319 5.0464535888750106e-05</internalNodes>
          <leafValues>
            -4.1223889589309692e-01 2.0255954563617706e-01</leafValues></_>
        <_>
          <internalNodes>
            0 -1 59 1.0447034612298012e-02</internalNodes>
          <leafValues>
            -2.1391074359416962e-01 4.1622337698936462e-01</leafValues></_>
        <_>
          <internalNodes>
            0 -1 282 -2.1531831473112106e-02</internalNodes>
          <leafValues>
            5.0122427940368652e-01 -1.4786991477012634e-01</leafValues></_>
        <_>
          <internalNodes>
            0 -1 19 -1.5475016552954912e-03</internalNodes>
          <leafValues>
            5.9334003925323486e-01 -1.3157123327255249e-01</leafValues></_>
        <_>
          <internalNodes>
            0 -1 14 1.5636410098522902e-03</internalNodes>
          <leafValues>
            -1.6447216272354126e-01 5.3919607400894165e-01</leafValues></_>
        <_>
          <internalNodes>
            0 -1 248 1.1019597295671701e-03</internalNodes>
          <leafValues>
            1.6374023258686066e-01 -6.1090397834777832e-01</leafValues></_>
        <_>
          <internalNodes>
            0 -1 100 7.1362755261361599e-03</internalNodes>
          <leafValues>
            -2.0542955398559570e-01 4.5550319552421570e-01</leafValues></_>
        <_>
          <internalNodes>
            0 -1 218 -5.4407143034040928e-04</internalNodes>
          <leafValues>
            -8.2771158218383789e-01 1.0339667648077011e-01</leafValues></_>
        <_>
          <internalNodes>
            0 -1 325 -1.5401520067825913e-03</internalNodes>
          <leafValues>
            4.0448579192161560e-01 -2.0309822261333466e-01</leafValues></_>
        <_>
          <internalNodes>
            0 -1 153 -5.1256699953228235e-04</internalNodes>
          <leafValues>
            -5.8279556035995483e-01 1.3988102972507477e-01</leafValues></_>
        <_>
          <internalNodes>
            0 -1 134 -4.3884376063942909e-03</internalNodes>
          <leafValues>
            3.8625845313072205e-01 -1.9378542900085449e-01</leafValues></_>
        <_>
          <internalNodes>
            0 -1 240 7.2564883157610893e-04</internalNodes>
          <leafValues>
            1.3498511910438538e-01 -5.8305919170379639e-01</leafValues></_>
        <_>
          <internalNodes>
            0 -1 332 9.9680162966251373e-03</internalNodes>
          <leafValues>
            -1.2398376315832138e-01 6.6046231985092163e-01</leafValues></_>
        <_>
          <internalNodes>
            0 -1 275 -6.0386927798390388e-03</internalNodes>
          <leafValues>
            1.5933249890804291e-01 -5.7110702991485596e-01</leafValues></_>
        <_>
          <internalNodes>
            0 -1 73 1.6043579671531916e-03</internalNodes>
          <leafValues>
            -1.8012876808643341e-01 4.5681932568550110e-01</leafValues></_>
        <_>
          <internalNodes>
            0 -1 166 -2.3085130378603935e-03</internalNodes>
          <leafValues>
            3.8981434702873230e-01 -1.8781927227973938e-01</leafValues></_>
        <_>
          <internalNodes>
            0 -1 32 -4.4094756245613098e-02</internalNodes>
          <leafValues>
            4.8701548576354980e-01 -1.5118919312953949e-01</leafValues></_>
        <_>
          <internalNodes>
            0 -1 343 -5.9434323338791728e-04</internalNodes>
          <leafValues>
            3.5446152091026306e-01 -2.0545339584350586e-01</leafValues></_></weakClassifiers></_>
    <!-- stage 11 -->
    <_>
      <maxWeakCount>21</maxWeakCount>
      <stageThreshold>-7.8867399692535400e-01</stageThreshold>
      <weakClassifiers>
        <_>
          <internalNodes>
            0 -1 226 1.5642246580682695e-04</internalNodes>
          <leafValues>
            -5.5462185293436050e-02 5.3788816928863525e-01</leafValues></_>
        <_>
          <internalNodes>
            0 -1 74 -8.4984432905912399e-03</internalNodes>
          <leafValues>
            3.7980538606643677e-01 -2.3820132017135620e-01</leafValues></_>
        <_>
          <internalNodes>
            0 -1 185 1.2890077196061611e-03</internalNodes>
          <leafValues>
            1.5470333397388458e-01 -6.6745609045028687e-01</leafValues></_>
        <_>
          <internalNodes>
            0 -1 62 2.7600701898336411e-02</internalNodes>
          <leafValues>
            -1.3106614351272583e-01 6.2697821855545044e-01</leafValues></_>
        <_>
          <internalNodes>
            0 -1 292 -2.7617830783128738e-03</internalNodes>
          <leafValues>
            3.9170870184898376e-01 -1.9153165817260742e-01</leafValues></_>
        <_>
          <internalNodes>
            0 -1 189 7.2005675174295902e-03</internalNodes>
          <leafValues>
            1.2162132561206818e-01 -6.0317075252532959e-01</leafValues></_>
        <_>
          <internalNodes>
            0 -1 276 -1.1297217756509781e-01</internalNodes>
          <leafValues>
            -7.7503943443298340e-01 9.4508148729801178e-02</leafValues></_>
        <_>
          <internalNodes>
            0 -1 191 -8.9051080867648125e-03</internalNodes>
          <leafValues>
            4.1187253594398499e-01 -1.9928686320781708e-01</leafValues></_>
        <_>
          <internalNodes>
            0 -1 255 1.4407912967726588e-03</internalNodes>
          <leafValues>
            -2.5017791986465454e-01 3.7529432773590088e-01</leafValues></_>
        <_>
          <internalNodes>
            0 -1 251 -1.2491925153881311e-03</internalNodes>
          <leafValues>
            -6.7682456970214844e-01 1.3604250550270081e-01</leafValues></_>
        <_>
          <internalNodes>
            0 -1 211 -8.7015507742762566e-03</internalNodes>
          <leafValues>
            2.9989492893218994e-01 -2.6711785793304443e-01</leafValues></_>
        <_>
          <internalNodes>
            0 -1 331 -1.8156433943659067e-03</internalNodes>
          <leafValues>
            6.2207806110382080e-01 -1.0997089743614197e-01</leafValues></_>
        <_>
          <internalNodes>
            0 -1 49 -6.4223175868391991e-03</internalNodes>
          <leafValues>
            4.6237534284591675e-01 -1.4807134866714478e-01</leafValues></_>
        <_>
          <internalNodes>
            0 -1 16 -1.7680805176496506e-02</internalNodes>
          <leafValues>
            2.2190679609775543e-01 -3.3506944775581360e-01</leafValues></_>
        <_>
          <internalNodes>
            0 -1 25 1.6127889975905418e-02</internalNodes>
          <leafValues>
            -1.2985458970069885e-01 5.5135250091552734e-01</leafValues></_>
        <_>
          <internalNodes>
            0 -1 320 7.3979730950668454e-04</internalNodes>
          <leafValues>
            -3.1949064135551453e-01 2.5654888153076172e-01</leafValues></_>
        <_>
          <internalNodes>
            0 -1 29 -7.5237574055790901e-03</internalNodes>
          <leafValues>
            3.9011254906654358e-01 -1.8083652853965759e-01</leafValues></_>
        <_>
          <internalNodes>
            0 -1 98 -2.9973527416586876e-03</internalNodes>
          <leafValues>
            3.9573186635971069e-01 -2.0760068297386169e-01</leafValues></_>
        <_>
          <internalNodes>
            0 -1 294 -5.5650062859058380e-04</internalNodes>
          <leafValues>
            -7.3312389850616455e-01 1.1347310990095139e-01</leafValues></_>
        <_>
          <internalNodes>
            0 -1 93 -1.2421496212482452e-01</internalNodes>
          <leafValues>
            2.5586068630218506e-01 -3.0325943231582642e-01</leafValues></_>
        <_>
          <internalNodes>
            0 -1 258 4.4106291607022285e-03</internalNodes>
          <leafValues>
            8.3852395415306091e-02 -8.2072693109512329e-01</leafValues></_></weakClassifiers></_>
    <!-- stage 12 -->
    <_>
      <maxWeakCount>19</maxWeakCount>
      <stageThreshold>-6.2829577922821045e-01</stageThreshold>
      <weakClassifiers>
        <_>
          <internalNodes>
            0 -1 66 1.0488501284271479e-03</internalNodes>
          <leafValues>
            3.7580645084381104e-01 -4.1249999403953552e-01</leafValues></_>
        <_>
          <internalNodes>
            0 -1 273 1.6858626157045364e-02</internalNodes>
          <leafValues>
            -1.7332050204277039e-01 5.0693655014038086e-01</leafValues></_>
        <_>
          <internalNodes>
            0 -1 192 -6.3965311273932457e-03</internalNodes>
          <leafValues>
            4.4255641102790833e-01 -1.9443449378013611e-01</leafValues></_>
        <_>
          <internalNodes>
            0 -1 179 -2.5080321356654167e-03</internalNodes>
          <leafValues>
            -5.0284063816070557e-01 1.1723134666681290e-01</leafValues></_>
        <_>
          <internalNodes>
            0 -1 261 2.4529750226065516e-04</internalNodes>
          <leafValues>
            9.4258159399032593e-02 -6.7386370897293091e-01</leafValues></_>
        <_>
          <internalNodes>
            0 -1 315 -1.3928473927080631e-03</internalNodes>
          <leafValues>
            5.1273202896118164e-01 -1.6710300743579865e-01</leafValues></_>
        <_>
          <internalNodes>
            0 -1 299 1.4841780066490173e-02</internalNodes>
          <leafValues>
            -1.7657093703746796e-01 4.7724407911300659e-01</leafValues></_>
        <_>
          <internalNodes>
            0 -1 161 4.8002395487856120e-05</internalNodes>
          <leafValues>
            -3.3996155858039856e-01 2.2815801203250885e-01</leafValues></_>
        <_>
          <internalNodes>
            0 -1 103 -3.5765420179814100e-03</internalNodes>
          <leafValues>
            6.5696692466735840e-01 -1.0756303369998932e-01</leafValues></_>
        <_>
          <internalNodes>
            0 -1 214 -8.5403528064489365e-03</internalNodes>
          <leafValues>
            2.0952340960502625e-01 -3.7927535176277161e-01</leafValues></_>
        <_>
          <internalNodes>
            0 -1 105 -4.1349753737449646e-01</internalNodes>
          <leafValues>
            -7.2234463691711426e-01 9.3975357711315155e-02</leafValues></_>
        <_>
          <internalNodes>
            0 -1 84 1.0073838755488396e-02</internalNodes>
          <leafValues>
            -1.9673891365528107e-01 3.9155873656272888e-01</leafValues></_>
        <_>
          <internalNodes>
            0 -1 230 -1.3021114282310009e-03</internalNodes>
          <leafValues>
            -6.7462027072906494e-01 9.5988340675830841e-02</leafValues></_>
        <_>
          <internalNodes>
            0 -1 317 -3.5765668144449592e-04</internalNodes>
          <leafValues>
            3.0456867814064026e-01 -2.0976550877094269e-01</leafValues></_>
        <_>
          <internalNodes>
            0 -1 328 -5.7518051471561193e-04</internalNodes>
          <leafValues>
            4.2476302385330200e-01 -1.5953022241592407e-01</leafValues></_>
        <_>
          <internalNodes>
            0 -1 256 4.0285539580509067e-04</internalNodes>
          <leafValues>
            1.5596196055412292e-01 -4.7683420777320862e-01</leafValues></_>
        <_>
          <internalNodes>
            0 -1 28 -9.5197156071662903e-02</internalNodes>
          <leafValues>
            -9.0757805109024048e-01 6.8459659814834595e-02</leafValues></_>
        <_>
          <internalNodes>
            0 -1 31 8.7428366532549262e-04</internalNodes>
          <leafValues>
            -1.7401480674743652e-01 3.6594519019126892e-01</leafValues></_>
        <_>
          <internalNodes>
            0 -1 46 -2.5774617679417133e-03</internalNodes>
          <leafValues>
            2.4258586764335632e-01 -2.5084024667739868e-01</leafValues></_></weakClassifiers></_>
    <!-- stage 13 -->
    <_>
      <maxWeakCount>23</maxWeakCount>
      <stageThreshold>-7.2319728136062622e-01</stageThreshold>
      <weakClassifiers>
        <_>
          <internalNodes>
            0 -1 290 -5.1282644271850586e-03</internalNodes>
          <leafValues>
            5.4689753055572510e-01 2.9702970758080482e-02</leafValues></_>
        <_>
          <internalNodes>
            0 -1 41 4.8672938719391823e-03</internalNodes>
          <leafValues>
            -1.7507193982601166e-01 3.6805099248886108e-01</leafValues></_>
        <_>
          <internalNodes>
            0 -1 227 -3.9778422797098756e-04</internalNodes>
          <leafValues>
            -6.6362059116363525e-01 1.0414186865091324e-01</leafValues></_>
        <_>
          <internalNodes>
            0 -1 177 -7.8881969675421715e-03</internalNodes>
          <leafValues>
            5.9316974878311157e-01 -1.1295762658119202e-01</leafValues></_>
        <_>
          <internalNodes>
            0 -1 165 -1.0495345108211040e-02</internalNodes>
          <leafValues>
            5.5405604839324951e-01 -1.5941670536994934e-01</leafValues></_>
        <_>
          <internalNodes>
            0 -1 119 -5.6872703135013580e-03</internalNodes>
          <leafValues>
            2.0492094755172729e-01 -3.0852469801902771e-01</leafValues></_>
        <_>
          <internalNodes>
            0 -1 154 2.0759802311658859e-02</internalNodes>
          <leafValues>
            -1.3010179996490479e-01 5.9186977148056030e-01</leafValues></_>
        <_>
          <internalNodes>
            0 -1 124 -1.3959411531686783e-02</internalNodes>
          <leafValues>
            4.0592154860496521e-01 -1.5877452492713928e-01</leafValues></_>
        <_>
          <internalNodes>
            0 -1 71 -1.0018487274646759e-01</internalNodes>
          <leafValues>
            1.4717371761798859e-01 -5.1237785816192627e-01</leafValues></_>
        <_>
          <internalNodes>
            0 -1 305 3.3185917418450117e-03</internalNodes>
          <leafValues>
            -1.3359242677688599e-01 4.9615922570228577e-01</leafValues></_>
        <_>
          <internalNodes>
            0 -1 318 2.4490565992891788e-03</internalNodes>
          <leafValues>
            -1.8996396660804749e-01 3.4440365433692932e-01</leafValues></_>
        <_>
          <internalNodes>
            0 -1 183 -7.9318153439089656e-04</internalNodes>
          <leafValues>
            -6.4762902259826660e-01 1.1812086403369904e-01</leafValues></_>
        <_>
          <internalNodes>
            0 -1 303 -2.9873456805944443e-02</internalNodes>
          <leafValues>
            6.0353237390518188e-01 -1.1855776607990265e-01</leafValues></_>
        <_>
          <internalNodes>
            0 -1 297 2.3894319310784340e-02</internalNodes>
          <leafValues>
            1.1058322340250015e-01 -6.2827205657958984e-01</leafValues></_>
        <_>
          <internalNodes>
            0 -1 35 -1.7704518977552652e-03</internalNodes>
          <leafValues>
            3.2289472222328186e-01 -1.8015421926975250e-01</leafValues></_>
        <_>
          <internalNodes>
            0 -1 197 1.3633688911795616e-02</internalNodes>
          <leafValues>
            1.1090812832117081e-01 -5.9601843357086182e-01</leafValues></_>
        <_>
          <internalNodes>
            0 -1 352 -2.5658772210590541e-04</internalNodes>
          <leafValues>
            -5.4138946533203125e-01 1.0637708008289337e-01</leafValues></_>
        <_>
          <internalNodes>
            0 -1 111 -4.5842910185456276e-03</internalNodes>
          <leafValues>
            2.9167020320892334e-01 -1.9209063053131104e-01</leafValues></_>
        <_>
          <internalNodes>
            0 -1 200 -4.9409689381718636e-03</internalNodes>
          <leafValues>
            2.7114054560661316e-01 -2.4565151333808899e-01</leafValues></_>
        <_>
          <internalNodes>
            0 -1 173 -9.6217291429638863e-03</internalNodes>
          <leafValues>
            4.6430468559265137e-01 -1.3728371262550354e-01</leafValues></_>
        <_>
          <internalNodes>
            0 -1 79 -2.4638544768095016e-02</internalNodes>
          <leafValues>
            -5.5013906955718994e-01 1.3088664412498474e-01</leafValues></_>
        <_>
          <internalNodes>
            0 -1 287 -8.2685425877571106e-03</internalNodes>
          <leafValues>
            3.0831831693649292e-01 -2.0065833628177643e-01</leafValues></_>
        <_>
          <internalNodes>
            0 -1 227 3.8606958696618676e-04</internalNodes>
          <leafValues>
            8.8911063969135284e-02 -7.9181593656539917e-01</leafValues></_></weakClassifiers></_>
    <!-- stage 14 -->
    <_>
      <maxWeakCount>24</maxWeakCount>
      <stageThreshold>-8.6498326063156128e-01</stageThreshold>
      <weakClassifiers>
        <_>
          <internalNodes>
            0 -1 60 -2.2550995345227420e-04</internalNodes>
          <leafValues>
            5.0124686956405640e-01 -3.3444815780967474e-03</leafValues></_>
        <_>
          <internalNodes>
            0 -1 221 -4.5951921492815018e-03</internalNodes>
          <leafValues>
            5.5859035253524780e-01 -1.1479493230581284e-01</leafValues></_>
        <_>
          <internalNodes>
            0 -1 338 1.4818205963820219e-03</internalNodes>
          <leafValues>
            -2.4759466946125031e-01 2.8596282005310059e-01</leafValues></_>
        <_>
          <internalNodes>
            0 -1 174 -2.3834265768527985e-02</internalNodes>
          <leafValues>
            6.0815572738647461e-01 -1.5430146455764771e-01</leafValues></_>
        <_>
          <internalNodes>
            0 -1 203 8.4572168998420238e-04</internalNodes>
          <leafValues>
            1.4312416315078735e-01 -6.7882162332534790e-01</leafValues></_>
        <_>
          <internalNodes>
            0 -1 145 -4.0127416141331196e-03</internalNodes>
          <leafValues>
            5.6770390272140503e-01 -1.5278838574886322e-01</leafValues></_>
        <_>
          <internalNodes>
            0 -1 131 2.8261587023735046e-02</internalNodes>
          <leafValues>
            -9.1159462928771973e-02 6.3384258747100830e-01</leafValues></_>
        <_>
          <internalNodes>
            0 -1 346 -5.6309596402570605e-04</internalNodes>
          <leafValues>
            4.2112553119659424e-01 -1.4993876218795776e-01</leafValues></_>
        <_>
          <internalNodes>
            0 -1 104 -5.0659049302339554e-03</internalNodes>
          <leafValues>
            4.4600296020507813e-01 -1.7049121856689453e-01</leafValues></_>
        <_>
          <internalNodes>
            0 -1 149 -2.5755665265023708e-03</internalNodes>
          <leafValues>
            3.7176588177680969e-01 -1.8958491086959839e-01</leafValues></_>
        <_>
          <internalNodes>
            0 -1 75 -6.9958806037902832e-02</internalNodes>
          <leafValues>
            -8.1346982717514038e-01 1.0105101764202118e-01</leafValues></_>
        <_>
          <internalNodes>
            0 -1 314 5.8233346790075302e-03</internalNodes>
          <leafValues>
            -1.2598343193531036e-01 5.9304076433181763e-01</leafValues></_>
        <_>
          <internalNodes>
            0 -1 321 6.5891165286302567e-04</internalNodes>
          <leafValues>
            1.5345291793346405e-01 -5.4191315174102783e-01</leafValues></_>
        <_>
          <internalNodes>
            0 -1 17 -2.2085722535848618e-02</internalNodes>
          <leafValues>
            2.8330501914024353e-01 -2.4223132431507111e-01</leafValues></_>
        <_>
          <internalNodes>
            0 -1 38 7.4259741231799126e-03</internalNodes>
          <leafValues>
            1.8474210798740387e-01 -4.0379199385643005e-01</leafValues></_>
        <_>
          <internalNodes>
            0 -1 225 -5.8972497936338186e-04</internalNodes>
          <leafValues>
            -5.0716906785964966e-01 1.3091850280761719e-01</leafValues></_>
        <_>
          <internalNodes>
            0 -1 22 -1.3059852644801140e-02</internalNodes>
          <leafValues>
            4.9400004744529724e-01 -1.3845343887805939e-01</leafValues></_>
        <_>
          <internalNodes>
            0 -1 327 -3.8014557212591171e-03</internalNodes>
          <leafValues>
            4.8053753376007080e-01 -1.3728520274162292e-01</leafValues></_>
        <_>
          <internalNodes>
            0 -1 88 -7.0401844568550587e-03</internalNodes>
          <leafValues>
            1.3102127611637115e-01 -5.0551164150238037e-01</leafValues></_>
        <_>
          <internalNodes>
            0 -1 280 9.8378350958228111e-04</internalNodes>
          <leafValues>
            1.0025532543659210e-01 -5.7500684261322021e-01</leafValues></_>
        <_>
          <internalNodes>
            0 -1 345 -8.1446149852126837e-04</internalNodes>
          <leafValues>
            4.3146881461143494e-01 -1.7443110048770905e-01</leafValues></_>
        <_>
          <internalNodes>
            0 -1 274 -5.3663225844502449e-03</internalNodes>
          <leafValues>
            2.8491005301475525e-01 -2.3610106110572815e-01</leafValues></_>
        <_>
          <internalNodes>
            0 -1 215 1.6880186740309000e-03</internalNodes>
          <leafValues>
            1.0360193252563477e-01 -5.9981006383895874e-01</leafValues></_>
        <_>
          <internalNodes>
            0 -1 136 -7.6600676402449608e-03</internalNodes>
          <leafValues>
            4.5226550102233887e-01 -1.4618423581123352e-01</leafValues></_></weakClassifiers></_>
    <!-- stage 15 -->
    <_>
      <maxWeakCount>23</maxWeakCount>
      <stageThreshold>-7.5447791814804077e-01</stageThreshold>
      <weakClassifiers>
        <_>
          <internalNodes>
            0 -1 222 4.6332171768881381e-04</internalNodes>
          <leafValues>
            4.6475771069526672e-01 -4.4715445488691330e-02</leafValues></_>
        <_>
          <internalNodes>
            0 -1 36 -2.1114870905876160e-03</internalNodes>
          <leafValues>
            3.9809611439704895e-01 -1.6787105798721313e-01</leafValues></_>
        <_>
          <internalNodes>
            0 -1 94 -4.6789329499006271e-03</internalNodes>
          <leafValues>
            1.6980858147144318e-01 -3.7510070204734802e-01</leafValues></_>
        <_>
          <internalNodes>
            0 -1 126 2.4594787508249283e-02</internalNodes>
          <leafValues>
            -1.0369788855314255e-01 6.7263710498809814e-01</leafValues></_>
        <_>
          <internalNodes>
            0 -1 58 -1.4224874787032604e-02</internalNodes>
          <leafValues>
            5.2444314956665039e-01 -1.8485350906848907e-01</leafValues></_>
        <_>
          <internalNodes>
            0 -1 269 -4.7610275214537978e-04</internalNodes>
          <leafValues>
            -5.8022308349609375e-01 1.3240663707256317e-01</leafValues></_>
        <_>
          <internalNodes>
            0 -1 323 -9.8109943792223930e-04</internalNodes>
          <leafValues>
            3.9485269784927368e-01 -1.8926611542701721e-01</leafValues></_>
        <_>
          <internalNodes>
            0 -1 326 1.5674297465011477e-03</internalNodes>
          <leafValues>
            -1.1755729466676712e-01 6.1769396066665649e-01</leafValues></_>
        <_>
          <internalNodes>
            0 -1 194 1.0454203933477402e-02</internalNodes>
          <leafValues>
            8.7690629065036774e-02 -8.4285628795623779e-01</leafValues></_>
        <_>
          <internalNodes>
            0 -1 48 -4.5090497587807477e-04</internalNodes>
          <leafValues>
            2.1037401258945465e-01 -2.7001935243606567e-01</leafValues></_>
        <_>
          <internalNodes>
            0 -1 257 -6.3733442220836878e-04</internalNodes>
          <leafValues>
            -6.2127465009689331e-01 9.7187072038650513e-02</leafValues></_>
        <_>
          <internalNodes>
            0 -1 316 1.1773864971473813e-03</internalNodes>
          <leafValues>
            -2.4644199013710022e-01 2.5143063068389893e-01</leafValues></_>
        <_>
          <internalNodes>
            0 -1 151 -1.2912175152450800e-03</internalNodes>
          <leafValues>
            -4.0974622964859009e-01 1.5023078024387360e-01</leafValues></_>
        <_>
          <internalNodes>
            0 -1 288 -2.8272907366044819e-04</internalNodes>
          <leafValues>
            -4.2026299238204956e-01 1.4471796154975891e-01</leafValues></_>
        <_>
          <internalNodes>
            0 -1 243 -6.9138789549469948e-03</internalNodes>
          <leafValues>
            5.7308053970336914e-01 -1.2499286234378815e-01</leafValues></_>
        <_>
          <internalNodes>
            0 -1 39 -1.2791433837264776e-03</internalNodes>
          <leafValues>
            3.6771002411842346e-01 -1.6004258394241333e-01</leafValues></_>
        <_>
          <internalNodes>
            0 -1 13 1.9199646776542068e-03</internalNodes>
          <leafValues>
            -9.4954147934913635e-02 5.9481793642044067e-01</leafValues></_>
        <_>
          <internalNodes>
            0 -1 265 -1.1329135298728943e-01</internalNodes>
          <leafValues>
            -7.3025405406951904e-01 8.9510738849639893e-02</leafValues></_>
        <_>
          <internalNodes>
            0 -1 114 1.6463562846183777e-02</internalNodes>
          <leafValues>
            -1.6655766963958740e-01 3.8563403487205505e-01</leafValues></_>
        <_>
          <internalNodes>
            0 -1 304 -3.2712428946979344e-04</internalNodes>
          <leafValues>
            2.4387496709823608e-01 -2.8030964732170105e-01</leafValues></_>
        <_>
          <internalNodes>
            0 -1 178 -8.3126137033104897e-03</internalNodes>
          <leafValues>
            -6.8094992637634277e-01 9.2530220746994019e-02</leafValues></_>
        <_>
          <internalNodes>
            0 -1 2 7.2726681828498840e-03</internalNodes>
          <leafValues>
            -1.4497177302837372e-01 4.4716575741767883e-01</leafValues></_>
        <_>
          <internalNodes>
            0 -1 33 -1.8787521868944168e-02</internalNodes>
          <leafValues>
            2.8485736250877380e-01 -2.1522250771522522e-01</leafValues></_></weakClassifiers></_>
    <!-- stage 16 -->
    <_>
      <maxWeakCount>24</maxWeakCount>
      <stageThreshold>-7.1664118766784668e-01</stageThreshold>
      <weakClassifiers>
        <_>
          <internalNodes>
            0 -1 51 -4.4064912945032120e-03</internalNodes>
          <leafValues>
            6.1776059865951538e-01 9.0702950954437256e-02</leafValues></_>
        <_>
          <internalNodes>
            0 -1 270 2.8364146128296852e-03</internalNodes>
          <leafValues>
            -1.7371648550033569e-01 4.2280498147010803e-01</leafValues></_>
        <_>
          <internalNodes>
            0 -1 138 -1.4601054135710001e-03</internalNodes>
          <leafValues>
            -5.4735809564590454e-01 1.3393050432205200e-01</leafValues></_>
        <_>
          <internalNodes>
            0 -1 144 -3.9076167158782482e-03</internalNodes>
          <leafValues>
            2.7690714597702026e-01 -2.5500434637069702e-01</leafValues></_>
        <_>
          <internalNodes>
            0 -1 113 3.8471911102533340e-03</internalNodes>
          <leafValues>
            -2.1527232229709625e-01 3.5500890016555786e-01</leafValues></_>
        <_>
          <internalNodes>
            0 -1 333 1.2071987614035606e-02</internalNodes>
          <leafValues>
            -2.1827556192874908e-01 3.3934998512268066e-01</leafValues></_>
        <_>
          <internalNodes>
            0 -1 128 7.2889113798737526e-03</internalNodes>
          <leafValues>
            -1.6175208985805511e-01 4.2550447583198547e-01</leafValues></_>
        <_>
          <internalNodes>
            0 -1 159 -3.2913354225456715e-03</internalNodes>
          <leafValues>
            3.9522731304168701e-01 -1.7985585331916809e-01</leafValues></_>
        <_>
          <internalNodes>
            0 -1 168 1.4512197813019156e-03</internalNodes>
          <leafValues>
            1.3346403837203979e-01 -5.2136337757110596e-01</leafValues></_>
        <_>
          <internalNodes>
            0 -1 68 3.6280923523008823e-03</internalNodes>
          <leafValues>
            -1.0073500126600266e-01 5.9146028757095337e-01</leafValues></_>
        <_>
          <internalNodes>
            0 -1 339 -6.8106525577604771e-04</internalNodes>
          <leafValues>
            5.0750839710235596e-01 -1.1186213046312332e-01</leafValues></_>
        <_>
          <internalNodes>
            0 -1 102 1.0903604561462998e-03</internalNodes>
          <leafValues>
            -1.4663004875183105e-01 4.1103738546371460e-01</leafValues></_>
        <_>
          <internalNodes>
            0 -1 237 -1.5654001384973526e-02</internalNodes>
          <leafValues>
            3.1203013658523560e-01 -1.9587127864360809e-01</leafValues></_>
        <_>
          <internalNodes>
            0 -1 50 4.0850706398487091e-02</internalNodes>
          <leafValues>
            9.2057086527347565e-02 -8.2701754570007324e-01</leafValues></_>
        <_>
          <internalNodes>
            0 -1 37 -6.4239287748932838e-03</internalNodes>
          <leafValues>
            1.3414324820041656e-01 -4.1673877835273743e-01</leafValues></_>
        <_>
          <internalNodes>
            0 -1 6 -9.9333137273788452e-02</internalNodes>
          <leafValues>
            8.6513233184814453e-01 -7.4761480093002319e-02</leafValues></_>
        <_>
          <internalNodes>
            0 -1 272 -3.8211930543184280e-02</internalNodes>
          <leafValues>
            4.6227574348449707e-01 -1.1427203565835953e-01</leafValues></_>
        <_>
          <internalNodes>
            0 -1 133 -3.4267553128302097e-03</internalNodes>
          <leafValues>
            3.8966071605682373e-01 -1.6173766553401947e-01</leafValues></_>
        <_>
          <internalNodes>
            0 -1 117 3.0291486531496048e-02</internalNodes>
          <leafValues>
            -8.4128804504871368e-02 6.9110780954360962e-01</leafValues></_>
        <_>
          <internalNodes>
            0 -1 225 4.4454983435571194e-04</internalNodes>
          <leafValues>
            1.6196690499782562e-01 -3.8108861446380615e-01</leafValues></_>
        <_>
          <internalNodes>
            0 -1 300 -3.2338564051315188e-04</internalNodes>
          <leafValues>
            3.8803002238273621e-01 -1.5935206413269043e-01</leafValues></_>
        <_>
          <internalNodes>
            0 -1 293 5.5550175602547824e-05</internalNodes>
          <leafValues>
            -3.3373957872390747e-01 2.0772024989128113e-01</leafValues></_>
        <_>
          <internalNodes>
            0 -1 223 -6.6707613877952099e-03</internalNodes>
          <leafValues>
            7.3545926809310913e-01 -8.0241754651069641e-02</leafValues></_>
        <_>
          <internalNodes>
            0 -1 170 -2.5333983357995749e-03</internalNodes>
          <leafValues>
            -5.3773075342178345e-01 1.5175129473209381e-01</leafValues></_></weakClassifiers></_>
    <!-- stage 17 -->
    <_>
      <maxWeakCount>22</maxWeakCount>
      <stageThreshold>-7.5945079326629639e-01</stageThreshold>
      <weakClassifiers>
        <_>
          <internalNodes>
            0 -1 184 -8.1274588592350483e-04</internalNodes>
          <leafValues>
            -4.5911949872970581e-01 3.8114422559738159e-01</leafValues></_>
        <_>
          <internalNodes>
            0 -1 4 2.3981250822544098e-02</internalNodes>
          <leafValues>
            -1.1794017255306244e-01 5.7385730743408203e-01</leafValues></_>
        <_>
          <internalNodes>
            0 -1 195 -7.7111585997045040e-03</internalNodes>
          <leafValues>
            3.4500843286514282e-01 -1.9323690235614777e-01</leafValues></_>
        <_>
          <internalNodes>
            0 -1 216 -4.1749142110347748e-03</internalNodes>
          <leafValues>
            2.6091974973678589e-01 -2.6781618595123291e-01</leafValues></_>
        <_>
          <internalNodes>
            0 -1 175 7.1960338391363621e-04</internalNodes>
          <leafValues>
            1.0048411041498184e-01 -8.0509042739868164e-01</leafValues></_>
        <_>
          <internalNodes>
            0 -1 298 2.7030869387090206e-04</internalNodes>
          <leafValues>
            9.0971253812313080e-02 -5.3045570850372314e-01</leafValues></_>
        <_>
          <internalNodes>
            0 -1 329 -1.3959112111479044e-03</internalNodes>
          <leafValues>
            5.0988644361495972e-01 -1.3596150279045105e-01</leafValues></_>
        <_>
          <internalNodes>
            0 -1 92 -4.2175009730271995e-04</internalNodes>
          <leafValues>
            3.5879403352737427e-01 -1.7448039352893829e-01</leafValues></_>
        <_>
          <internalNodes>
            0 -1 169 2.4052094668149948e-03</internalNodes>
          <leafValues>
            8.3985358476638794e-02 -7.1436607837677002e-01</leafValues></_>
        <_>
          <internalNodes>
            0 -1 135 4.1431654244661331e-03</internalNodes>
          <leafValues>
            -2.6105791330337524e-01 2.7208420634269714e-01</leafValues></_>
        <_>
          <internalNodes>
            0 -1 27 -2.6127614080905914e-02</internalNodes>
          <leafValues>
            3.1366276741027832e-01 -2.2548605501651764e-01</leafValues></_>
        <_>
          <internalNodes>
            0 -1 324 -7.7303138095885515e-04</internalNodes>
          <leafValues>
            3.2339128851890564e-01 -1.9390210509300232e-01</leafValues></_>
        <_>
          <internalNodes>
            0 -1 116 7.5193413067609072e-04</internalNodes>
          <leafValues>
            1.3694387674331665e-01 -5.1433801651000977e-01</leafValues></_>
        <_>
          <internalNodes>
            0 -1 350 -1.4743056148290634e-02</internalNodes>
          <leafValues>
            -3.9591646194458008e-01 1.5630070865154266e-01</leafValues></_>
        <_>
          <internalNodes>
            0 -1 63 2.1304382244125009e-04</internalNodes>
          <leafValues>
            -2.2795182466506958e-01 2.8324532508850098e-01</leafValues></_>
        <_>
          <internalNodes>
            0 -1 164 3.3199518918991089e-02</internalNodes>
          <leafValues>
            7.9378403723239899e-02 -7.6364767551422119e-01</leafValues></_>
        <_>
          <internalNodes>
            0 -1 132 1.1957898736000061e-02</internalNodes>
          <leafValues>
            -2.2344794869422913e-01 3.1853711605072021e-01</leafValues></_>
        <_>
          <internalNodes>
            0 -1 107 -1.2440357357263565e-02</internalNodes>
          <leafValues>
            5.0240761041641235e-01 -1.1310920864343643e-01</leafValues></_>
        <_>
          <internalNodes>
            0 -1 266 -5.3107645362615585e-04</internalNodes>
          <leafValues>
            -4.4866800308227539e-01 1.4560751616954803e-01</leafValues></_>
        <_>
          <internalNodes>
            0 -1 8 -2.2875741124153137e-02</internalNodes>
          <leafValues>
            7.2103893756866455e-01 -8.4390655159950256e-02</leafValues></_>
        <_>
          <internalNodes>
            0 -1 278 -1.6504508676007390e-03</internalNodes>
          <leafValues>
            3.6541447043418884e-01 -1.5607672929763794e-01</leafValues></_>
        <_>
          <internalNodes>
            0 -1 82 -4.1317120194435120e-03</internalNodes>
          <leafValues>
            4.2874211072921753e-01 -1.7094109952449799e-01</leafValues></_></weakClassifiers></_>
    <!-- stage 18 -->
    <_>
      <maxWeakCount>20</maxWeakCount>
      <stageThreshold>-7.3643589019775391e-01</stageThreshold>
      <weakClassifiers>
        <_>
          <internalNodes>
            0 -1 296 -1.2291679158806801e-03</internalNodes>
          <leafValues>
            4.0119761228561401e-01 -2.9870128631591797e-01</leafValues></_>
        <_>
          <internalNodes>
            0 -1 147 1.6635149717330933e-02</internalNodes>
          <leafValues>
            1.4435428380966187e-01 -5.2920657396316528e-01</leafValues></_>
        <_>
          <internalNodes>
            0 -1 57 -2.3158392868936062e-03</internalNodes>
          <leafValues>
            3.2944872975349426e-01 -2.1842499077320099e-01</leafValues></_>
        <_>
          <internalNodes>
            0 -1 269 -4.9472751561552286e-04</internalNodes>
          <leafValues>
            -5.9059482812881470e-01 1.0684161633253098e-01</leafValues></_>
        <_>
          <internalNodes>
            0 -1 220 -5.4545199964195490e-04</internalNodes>
          <leafValues>
            -4.6205234527587891e-01 1.2901756167411804e-01</leafValues></_>
        <_>
          <internalNodes>
            0 -1 310 -2.1094633266329765e-03</internalNodes>
          <leafValues>
            5.0612252950668335e-01 -1.3157914578914642e-01</leafValues></_>
        <_>
          <internalNodes>
            0 -1 219 1.6287206672132015e-03</internalNodes>
          <leafValues>
            1.3829949498176575e-01 -4.4525933265686035e-01</leafValues></_>
        <_>
          <internalNodes>
            0 -1 213 -1.6302274307236075e-03</internalNodes>
          <leafValues>
            2.8843122720718384e-01 -2.1509550511837006e-01</leafValues></_>
        <_>
          <internalNodes>
            0 -1 180 3.5520776873454452e-04</internalNodes>
          <leafValues>
            -2.7759709954261780e-01 2.6720318198204041e-01</leafValues></_>
        <_>
          <internalNodes>
            0 -1 95 -3.1011034734547138e-03</internalNodes>
          <leafValues>
            3.7441995739936829e-01 -1.8131288886070251e-01</leafValues></_>
        <_>
          <internalNodes>
            0 -1 182 9.8236103076487780e-04</internalNodes>
          <leafValues>
            1.6265088319778442e-01 -4.1854876279830933e-01</leafValues></_>
        <_>
          <internalNodes>
            0 -1 110 -4.2267590761184692e-03</internalNodes>
          <leafValues>
            3.8194274902343750e-01 -1.8918558955192566e-01</leafValues></_>
        <_>
          <internalNodes>
            0 -1 186 -4.2284643277525902e-03</internalNodes>
          <leafValues>
            5.0514155626296997e-01 -1.8113228678703308e-01</leafValues></_>
        <_>
          <internalNodes>
            0 -1 181 4.9616850446909666e-04</internalNodes>
          <leafValues>
            1.8306176364421844e-01 -4.2132678627967834e-01</leafValues></_>
        <_>
          <internalNodes>
            0 -1 54 -3.0180178582668304e-03</internalNodes>
          <leafValues>
            2.5764065980911255e-01 -2.7726376056671143e-01</leafValues></_>
        <_>
          <internalNodes>
            0 -1 277 -2.0595837850123644e-03</internalNodes>
          <leafValues>
            3.2962736487388611e-01 -2.0589299499988556e-01</leafValues></_>
        <_>
          <internalNodes>
            0 -1 115 4.0177346090786159e-04</internalNodes>
          <leafValues>
            1.3953553140163422e-01 -4.8373049497604370e-01</leafValues></_>
        <_>
          <internalNodes>
            0 -1 239 -1.4696802827529609e-04</internalNodes>
          <leafValues>
            2.3351749777793884e-01 -2.7732697129249573e-01</leafValues></_>
        <_>
          <internalNodes>
            0 -1 201 -1.3805227354168892e-03</internalNodes>
          <leafValues>
            -5.0208061933517456e-01 1.4953659474849701e-01</leafValues></_>
        <_>
          <internalNodes>
            0 -1 190 -1.5406122431159019e-02</internalNodes>
          <leafValues>
            -5.2756172418594360e-01 1.3185322284698486e-01</leafValues></_></weakClassifiers></_>
    <!-- stage 19 -->
    <_>
      <maxWeakCount>26</maxWeakCount>
      <stageThreshold>-6.4668375253677368e-01</stageThreshold>
      <weakClassifiers>
        <_>
          <internalNodes>
            0 -1 202 -1.7616171389818192e-03</internalNodes>
          <leafValues>
            5.1604276895523071e-01 2.1472392603754997e-02</leafValues></_>
        <_>
          <internalNodes>
            0 -1 313 -1.1451523751020432e-03</internalNodes>
          <leafValues>
            4.1332265734672546e-01 -1.4130604267120361e-01</leafValues></_>
        <_>
          <internalNodes>
            0 -1 15 -1.0657003149390221e-02</internalNodes>
          <leafValues>
            5.1868581771850586e-01 -9.6996650099754333e-02</leafValues></_>
        <_>
          <internalNodes>
            0 -1 140 -6.1714621260762215e-03</internalNodes>
          <leafValues>
            3.3518174290657043e-01 -1.7200364172458649e-01</leafValues></_>
        <_>
          <internalNodes>
            0 -1 265 2.3387834429740906e-02</internalNodes>
          <leafValues>
            8.2867637276649475e-02 -6.8009090423583984e-01</leafValues></_>
        <_>
          <internalNodes>
            0 -1 108 -4.8700850456953049e-03</internalNodes>
          <leafValues>
            4.4518738985061646e-01 -1.5822565555572510e-01</leafValues></_>
        <_>
          <internalNodes>
            0 -1 210 1.7437807400710881e-04</internalNodes>
          <leafValues>
            9.2010281980037689e-02 -5.9635686874389648e-01</leafValues></_>
        <_>
          <internalNodes>
            0 -1 11 -4.0930800139904022e-02</internalNodes>
          <leafValues>
            2.1277548372745514e-01 -2.7382004261016846e-01</leafValues></_>
        <_>
          <internalNodes>
            0 -1 90 1.3060593046247959e-02</internalNodes>
          <leafValues>
            -1.9023028016090393e-01 3.1931135058403015e-01</leafValues></_>
        <_>
          <internalNodes>
            0 -1 250 -4.4350996613502502e-03</internalNodes>
          <leafValues>
            6.8616747856140137e-01 -8.5396990180015564e-02</leafValues></_>
        <_>
          <internalNodes>
            0 -1 52 4.6425834298133850e-03</internalNodes>
          <leafValues>
            -8.4961958229541779e-02 5.7700860500335693e-01</leafValues></_>
        <_>
          <internalNodes>
            0 -1 262 -4.1691301157698035e-04</internalNodes>
          <leafValues>
            3.4570977091789246e-01 -1.6815325617790222e-01</leafValues></_>
        <_>
          <internalNodes>
            0 -1 146 2.9165387153625488e-02</internalNodes>
          <leafValues>
            9.3788564205169678e-02 -6.7579650878906250e-01</leafValues></_>
        <_>
          <internalNodes>
            0 -1 302 -3.3388641895726323e-04</internalNodes>
          <leafValues>
            4.3800786137580872e-01 -1.2949696183204651e-01</leafValues></_>
        <_>
          <internalNodes>
            0 -1 64 3.7574797170236707e-04</internalNodes>
          <leafValues>
            1.1767518520355225e-01 -4.6352770924568176e-01</leafValues></_>
        <_>
          <internalNodes>
            0 -1 314 2.9958172235637903e-03</internalNodes>
          <leafValues>
            -1.3887247443199158e-01 3.9981392025947571e-01</leafValues></_>
        <_>
          <internalNodes>
            0 -1 335 -1.3056444004178047e-02</internalNodes>
          <leafValues>
            1.8607446551322937e-01 -3.5635221004486084e-01</leafValues></_>
        <_>
          <internalNodes>
            0 -1 160 -1.8105827271938324e-02</internalNodes>
          <leafValues>
            5.4626607894897461e-01 -1.1042685806751251e-01</leafValues></_>
        <_>
          <internalNodes>
            0 -1 81 -7.9084672033786774e-03</internalNodes>
          <leafValues>
            3.4985369443893433e-01 -1.8355293571949005e-01</leafValues></_>
        <_>
          <internalNodes>
            0 -1 121 -1.9563252106308937e-02</internalNodes>
          <leafValues>
            5.4825586080551147e-01 -1.1217109858989716e-01</leafValues></_>
        <_>
          <internalNodes>
            0 -1 242 3.3978043938986957e-04</internalNodes>
          <leafValues>
            1.0458278656005859e-01 -6.8517804145812988e-01</leafValues></_>
        <_>
          <internalNodes>
            0 -1 70 3.0593229457736015e-03</internalNodes>
          <leafValues>
            -1.1018487066030502e-01 5.9943288564682007e-01</leafValues></_>
        <_>
          <internalNodes>
            0 -1 235 2.7790076564997435e-03</internalNodes>
          <leafValues>
            8.3599209785461426e-02 -7.4237841367721558e-01</leafValues></_>
        <_>
          <internalNodes>
            0 -1 342 2.2785768378525972e-03</internalNodes>
          <leafValues>
            -1.9363091886043549e-01 2.7957752346992493e-01</leafValues></_>
        <_>
          <internalNodes>
            0 -1 268 2.0169861090835184e-04</internalNodes>
          <leafValues>
            1.1539156734943390e-01 -5.1239579916000366e-01</leafValues></_>
        <_>
          <internalNodes>
            0 -1 253 -1.0545948892831802e-01</internalNodes>
          <leafValues>
            -5.7856166362762451e-01 9.3590080738067627e-02</leafValues></_></weakClassifiers></_></stages>
  <features>
    <_>
      <rects>
        <_>
          0 0 4 6 -1.</_>
        <_>
          0 0 2 3 2.</_>
        <_>
          2 3 2 3 2.</_></rects>
      <tilted>0</tilted></_>
    <_>
      <rects>
        <_>
          0 1 6 5 -1.</_>
        <_>
          3 1 3 5 2.</_></rects>
      <tilted>0</tilted></_>
    <_>
      <rects>
        <_>
          0 1 8 2 -1.</_>
        <_>
          4 1 4 2 2.</_></rects>
      <tilted>0</tilted></_>
    <_>
      <rects>
        <_>
          0 1 22 20 -1.</_>
        <_>
          0 11 22 10 2.</_></rects>
      <tilted>0</tilted></_>
    <_>
      <rects>
        <_>
          0 2 8 10 -1.</_>
        <_>
          0 2 4 5 2.</_>
        <_>
          4 7 4 5 2.</_></rects>
      <tilted>0</tilted></_>
    <_>
      <rects>
        <_>
          0 2 8 14 -1.</_>
        <_>
          0 2 4 7 2.</_>
        <_>
          4 9 4 7 2.</_></rects>
      <tilted>0</tilted></_>
    <_>
      <rects>
        <_>
          0 2 8 22 -1.</_>
        <_>
          0 2 4 11 2.</_>
        <_>
          4 13 4 11 2.</_></rects>
      <tilted>0</tilted></_>
    <_>
      <rects>
        <_>
          0 3 2 18 -1.</_>
        <_>
          0 3 1 9 2.</_>
        <_>
          1 12 1 9 2.</_></rects>
      <tilted>0</tilted></_>
    <_>
      <rects>
        <_>
          0 3 4 10 -1.</_>
        <_>
          0 3 2 5 2.</_>
        <_>
          2 8 2 5 2.</_></rects>
      <tilted>0</tilted></_>
    <_>
      <rects>
        <_>
          0 3 6 17 -1.</_>
        <_>
          3 3 3 17 2.</_></rects>
      <tilted>0</tilted></_>
    <_>
      <rects>
        <_>
          0 3 24 5 -1.</_>
        <_>
          8 3 8 5 3.</_></rects>
      <tilted>0</tilted></_>
    <_>
      <rects>
        <_>
          0 3 24 6 -1.</_>
        <_>
          8 3 8 6 3.</_></rects>
      <tilted>0</tilted></_>
    <_>
      <rects>
        <_>
          0 3 24 15 -1.</_>
        <_>
          8 3 8 15 3.</_></rects>
      <tilted>0</tilted></_>
    <_>
      <rects>
        <_>
          0 4 2 4 -1.</_>
        <_>
          0 4 1 2 2.</_>
        <_>
          1 6 1 2 2.</_></rects>
      <tilted>0</tilted></_>
    <_>
      <rects>
        <_>
          0 4 3 3 -1.</_>
        <_>
          1 4 1 3 3.</_></rects>
      <tilted>0</tilted></_>
    <_>
      <rects>
        <_>
          0 4 2 18 -1.</_>
        <_>
          0 4 1 9 2.</_>
        <_>
          1 13 1 9 2.</_></rects>
      <tilted>0</tilted></_>
    <_>
      <rects>
        <_>
          0 4 3 18 -1.</_>
        <_>
          0 13 3 9 2.</_></rects>
      <tilted>0</tilted></_>
    <_>
      <rects>
        <_>
          0 4 18 6 -1.</_>
        <_>
          6 4 6 6 3.</_></rects>
      <tilted>0</tilted></_>
    <_>
      <rects>
        <_>
          0 4 24 5 -1.</_>
        <_>
          8 4 8 5 3.</_></rects>
      <tilted>0</tilted></_>
    <_>
      <rects>
        <_>
          0 5 3 2 -1.</_>
        <_>
          1 5 1 2 3.</_></rects>
      <tilted>0</tilted></_>
    <_>
      <rects>
        <_>
          0 5 6 4 -1.</_>
        <_>
          3 5 3 4 2.</_></rects>
      <tilted>0</tilted></_>
    <_>
      <rects>
        <_>
          0 5 21 2 -1.</_>
        <_>
          7 5 7 2 3.</_></rects>
      <tilted>0</tilted></_>
    <_>
      <rects>
        <_>
          0 5 24 3 -1.</_>
        <_>
          0 6 24 1 3.</_></rects>
      <tilted>0</tilted></_>
    <_>
      <rects>
        <_>
          0 6 2 2 -1.</_>
        <_>
          1 6 1 2 2.</_></rects>
      <tilted>0</tilted></_>
    <_>
      <rects>
        <_>
          0 6 4 4 -1.</_>
        <_>
          2 6 2 4 2.</_></rects>
      <tilted>0</tilted></_>
    <_>
      <rects>
        <_>
          0 6 6 7 -1.</_>
        <_>
          3 6 3 7 2.</_></rects>
      <tilted>0</tilted></_>
    <_>
      <rects>
        <_>
          0 6 6 18 -1.</_>
        <_>
          3 6 3 18 2.</_></rects>
      <tilted>0</tilted></_>
    <_>
      <rects>
        <_>
          0 6 24 3 -1.</_>
        <_>
          8 6 8 3 3.</_></rects>
      <tilted>0</tilted></_>
    <_>
      <rects>
        <_>
          0 6 22 10 -1.</_>
        <_>
          0 6 11 5 2.</_>
        <_>
          11 11 11 5 2.</_></rects>
      <tilted>0</tilted></_>
    <_>
      <rects>
        <_>
          0 7 9 3 -1.</_>
        <_>
          3 7 3 3 3.</_></rects>
      <tilted>0</tilted></_>
    <_>
      <rects>
        <_>
          0 7 12 14 -1.</_>
        <_>
          4 7 4 14 3.</_></rects>
      <tilted>0</tilted></_>
    <_>
      <rects>
        <_>
          0 8 2 6 -1.</_>
        <_>
          0 8 1 3 2.</_>
        <_>
          1 11 1 3 2.</_></rects>
      <tilted>0</tilted></_>
    <_>
      <rects>
        <_>
          0 8 8 12 -1.</_>
        <_>
          4 8 4 12 2.</_></rects>
      <tilted>0</tilted></_>
    <_>
      <rects>
        <_>
          0 8 24 4 -1.</_>
        <_>
          8 8 8 4 3.</_></rects>
      <tilted>0</tilted></_>
    <_>
      <rects>
        <_>
          0 8 24 12 -1.</_>
        <_>
          0 14 24 6 2.</_></rects>
      <tilted>0</tilted></_>
    <_>
      <rects>
        <_>
          0 9 3 13 -1.</_>
        <_>
          1 9 1 13 3.</_></rects>
      <tilted>0</tilted></_>
    <_>
      <rects>
        <_>
          0 10 4 2 -1.</_>
        <_>
          2 10 2 2 2.</_></rects>
      <tilted>0</tilted></_>
    <_>
      <rects>
        <_>
          0 10 5 10 -1.</_>
        <_>
          0 15 5 5 2.</_></rects>
      <tilted>0</tilted></_>
    <_>
      <rects>
        <_>
          0 10 16 6 -1.</_>
        <_>
          0 10 8 3 2.</_>
        <_>
          8 13 8 3 2.</_></rects>
      <tilted>0</tilted></_>
    <_>
      <rects>
        <_>
          0 11 4 4 -1.</_>
        <_>
          0 11 2 2 2.</_>
        <_>
          2 13 2 2 2.</_></rects>
      <tilted>0</tilted></_>
    <_>
      <rects>
        <_>
          0 13 9 5 -1.</_>
        <_>
          3 13 3 5 3.</_></rects>
      <tilted>0</tilted></_>
    <_>
      <rects>
        <_>
          0 14 6 10 -1.</_>
        <_>
          0 14 3 5 2.</_>
        <_>
          3 19 3 5 2.</_></rects>
      <tilted>0</tilted></_>
    <_>
      <rects>
        <_>
          0 15 2 9 -1.</_>
        <_>
          1 15 1 9 2.</_></rects>
      <tilted>0</tilted></_>
    <_>
      <rects>
        <_>
          0 15 6 8 -1.</_>
        <_>
          2 15 2 8 3.</_></rects>
      <tilted>0</tilted></_>
    <_>
      <rects>
        <_>
          0 15 24 8 -1.</_>
        <_>
          0 15 12 4 2.</_>
        <_>
          12 19 12 4 2.</_></rects>
      <tilted>0</tilted></_>
    <_>
      <rects>
        <_>
          0 16 3 8 -1.</_>
        <_>
          1 16 1 8 3.</_></rects>
      <tilted>0</tilted></_>
    <_>
      <rects>
        <_>
          0 16 24 1 -1.</_>
        <_>
          8 16 8 1 3.</_></rects>
      <tilted>0</tilted></_>
    <_>
      <rects>
        <_>
          0 17 6 5 -1.</_>
        <_>
          2 17 2 5 3.</_></rects>
      <tilted>0</tilted></_>
    <_>
      <rects>
        <_>
          0 17 6 1 -1.</_>
        <_>
          3 17 3 1 2.</_></rects>
      <tilted>0</tilted></_>
    <_>
      <rects>
        <_>
          0 17 6 2 -1.</_>
        <_>
          3 17 3 2 2.</_></rects>
      <tilted>0</tilted></_>
    <_>
      <rects>
        <_>
          0 17 22 3 -1.</_>
        <_>
          11 17 11 3 2.</_></rects>
      <tilted>0</tilted></_>
    <_>
      <rects>
        <_>
          0 18 6 3 -1.</_>
        <_>
          2 18 2 3 3.</_></rects>
      <tilted>0</tilted></_>
    <_>
      <rects>
        <_>
          0 18 6 5 -1.</_>
        <_>
          2 18 2 5 3.</_></rects>
      <tilted>0</tilted></_>
    <_>
      <rects>
        <_>
          0 18 9 4 -1.</_>
        <_>
          3 18 3 4 3.</_></rects>
      <tilted>0</tilted></_>
    <_>
      <rects>
        <_>
          0 18 24 1 -1.</_>
        <_>
          8 18 8 1 3.</_></rects>
      <tilted>0</tilted></_>
    <_>
      <rects>
        <_>
          0 18 16 3 -1.</_>
        <_>
          0 19 16 1 3.</_></rects>
      <tilted>0</tilted></_>
    <_>
      <rects>
        <_>
          0 19 3 2 -1.</_>
        <_>
          1 19 1 2 3.</_></rects>
      <tilted>0</tilted></_>
    <_>
      <rects>
        <_>
          0 19 6 3 -1.</_>
        <_>
          2 19 2 3 3.</_></rects>
      <tilted>0</tilted></_>
    <_>
      <rects>
        <_>
          0 19 12 3 -1.</_>
        <_>
          0 20 12 1 3.</_></rects>
      <tilted>0</tilted></_>
    <_>
      <rects>
        <_>
          0 19 18 3 -1.</_>
        <_>
          0 20 18 1 3.</_></rects>
      <tilted>0</tilted></_>
    <_>
      <rects>
        <_>
          0 20 2 3 -1.</_>
        <_>
          1 20 1 3 2.</_></rects>
      <tilted>0</tilted></_>
    <_>
      <rects>
        <_>
          0 20 2 4 -1.</_>
        <_>
          1 20 1 4 2.</_></rects>
      <tilted>0</tilted></_>
    <_>
      <rects>
        <_>
          0 20 21 3 -1.</_>
        <_>
          0 21 21 1 3.</_></rects>
      <tilted>0</tilted></_>
    <_>
      <rects>
        <_>
          0 21 4 2 -1.</_>
        <_>
          0 21 2 1 2.</_>
        <_>
          2 22 2 1 2.</_></rects>
      <tilted>0</tilted></_>
    <_>
      <rects>
        <_>
          0 22 4 2 -1.</_>
        <_>
          2 22 2 2 2.</_></rects>
      <tilted>0</tilted></_>
    <_>
      <rects>
        <_>
          0 22 12 2 -1.</_>
        <_>
          4 22 4 2 3.</_></rects>
      <tilted>0</tilted></_>
    <_>
      <rects>
        <_>
          0 23 6 1 -1.</_>
        <_>
          3 23 3 1 2.</_></rects>
      <tilted>0</tilted></_>
    <_>
      <rects>
        <_>
          0 23 12 1 -1.</_>
        <_>
          6 23 6 1 2.</_></rects>
      <tilted>0</tilted></_>
    <_>
      <rects>
        <_>
          1 0 2 8 -1.</_>
        <_>
          1 0 1 4 2.</_>
        <_>
          2 4 1 4 2.</_></rects>
      <tilted>0</tilted></_>
    <_>
      <rects>
        <_>
          1 0 18 2 -1.</_>
        <_>
          1 1 18 1 2.</_></rects>
      <tilted>0</tilted></_>
    <_>
      <rects>
        <_>
          1 1 2 6 -1.</_>
        <_>
          1 1 1 3 2.</_>
        <_>
          2 4 1 3 2.</_></rects>
      <tilted>0</tilted></_>
    <_>
      <rects>
        <_>
          1 1 22 22 -1.</_>
        <_>
          1 12 22 11 2.</_></rects>
      <tilted>0</tilted></_>
    <_>
      <rects>
        <_>
          1 3 3 6 -1.</_>
        <_>
          2 3 1 6 3.</_></rects>
      <tilted>0</tilted></_>
    <_>
      <rects>
        <_>
          1 3 6 1 -1.</_>
        <_>
          3 3 2 1 3.</_></rects>
      <tilted>0</tilted></_>
    <_>
      <rects>
        <_>
          1 3 12 4 -1.</_>
        <_>
          5 3 4 4 3.</_></rects>
      <tilted>0</tilted></_>
    <_>
      <rects>
        <_>
          1 11 22 8 -1.</_>
        <_>
          1 11 11 4 2.</_>
        <_>
          12 15 11 4 2.</_></rects>
      <tilted>0</tilted></_>
    <_>
      <rects>
        <_>
          1 15 6 9 -1.</_>
        <_>
          1 18 6 3 3.</_></rects>
      <tilted>0</tilted></_>
    <_>
      <rects>
        <_>
          1 15 7 9 -1.</_>
        <_>
          1 18 7 3 3.</_></rects>
      <tilted>0</tilted></_>
    <_>
      <rects>
        <_>
          1 16 3 8 -1.</_>
        <_>
          2 16 1 8 3.</_></rects>
      <tilted>0</tilted></_>
    <_>
      <rects>
        <_>
          1 17 5 6 -1.</_>
        <_>
          1 19 5 2 3.</_></rects>
      <tilted>0</tilted></_>
    <_>
      <rects>
        <_>
          1 18 8 6 -1.</_>
        <_>
          1 21 8 3 2.</_></rects>
      <tilted>0</tilted></_>
    <_>
      <rects>
        <_>
          1 18 16 3 -1.</_>
        <_>
          1 19 16 1 3.</_></rects>
      <tilted>0</tilted></_>
    <_>
      <rects>
        <_>
          1 19 16 2 -1.</_>
        <_>
          1 20 16 1 2.</_></rects>
      <tilted>0</tilted></_>
    <_>
      <rects>
        <_>
          1 20 18 3 -1.</_>
        <_>
          1 21 18 1 3.</_></rects>
      <tilted>0</tilted></_>
    <_>
      <rects>
        <_>
          1 20 22 3 -1.</_>
        <_>
          1 21 22 1 3.</_></rects>
      <tilted>0</tilted></_>
    <_>
      <rects>
        <_>
          1 22 9 2 -1.</_>
        <_>
          1 23 9 1 2.</_></rects>
      <tilted>0</tilted></_>
    <_>
      <rects>
        <_>
          1 23 21 1 -1.</_>
        <_>
          8 23 7 1 3.</_></rects>
      <tilted>0</tilted></_>
    <_>
      <rects>
        <_>
          2 0 2 6 -1.</_>
        <_>
          3 0 1 6 2.</_></rects>
      <tilted>0</tilted></_>
    <_>
      <rects>
        <_>
          2 0 5 22 -1.</_>
        <_>
          2 11 5 11 2.</_></rects>
      <tilted>0</tilted></_>
    <_>
      <rects>
        <_>
          2 4 2 2 -1.</_>
        <_>
          2 4 1 1 2.</_>
        <_>
          3 5 1 1 2.</_></rects>
      <tilted>0</tilted></_>
    <_>
      <rects>
        <_>
          2 5 10 19 -1.</_>
        <_>
          7 5 5 19 2.</_></rects>
      <tilted>0</tilted></_>
    <_>
      <rects>
        <_>
          2 5 14 16 -1.</_>
        <_>
          2 13 14 8 2.</_></rects>
      <tilted>0</tilted></_>
    <_>
      <rects>
        <_>
          2 6 3 2 -1.</_>
        <_>
          3 6 1 2 3.</_></rects>
      <tilted>0</tilted></_>
    <_>
      <rects>
        <_>
          2 9 17 15 -1.</_>
        <_>
          2 14 17 5 3.</_></rects>
      <tilted>0</tilted></_>
    <_>
      <rects>
        <_>
          2 10 5 12 -1.</_>
        <_>
          2 16 5 6 2.</_></rects>
      <tilted>0</tilted></_>
    <_>
      <rects>
        <_>
          2 11 20 3 -1.</_>
        <_>
          2 12 20 1 3.</_></rects>
      <tilted>0</tilted></_>
    <_>
      <rects>
        <_>
          2 17 18 5 -1.</_>
        <_>
          8 17 6 5 3.</_></rects>
      <tilted>0</tilted></_>
    <_>
      <rects>
        <_>
          2 18 22 5 -1.</_>
        <_>
          13 18 11 5 2.</_></rects>
      <tilted>0</tilted></_>
    <_>
      <rects>
        <_>
          2 18 16 2 -1.</_>
        <_>
          2 19 16 1 2.</_></rects>
      <tilted>0</tilted></_>
    <_>
      <rects>
        <_>
          2 20 19 3 -1.</_>
        <_>
          2 21 19 1 3.</_></rects>
      <tilted>0</tilted></_>
    <_>
      <rects>
        <_>
          2 21 18 3 -1.</_>
        <_>
          2 22 18 1 3.</_></rects>
      <tilted>0</tilted></_>
    <_>
      <rects>
        <_>
          2 23 21 1 -1.</_>
        <_>
          9 23 7 1 3.</_></rects>
      <tilted>0</tilted></_>
    <_>
      <rects>
        <_>
          3 2 6 2 -1.</_>
        <_>
          3 2 3 1 2.</_>
        <_>
          6 3 3 1 2.</_></rects>
      <tilted>0</tilted></_>
    <_>
      <rects>
        <_>
          3 4 2 4 -1.</_>
        <_>
          4 4 1 4 2.</_></rects>
      <tilted>0</tilted></_>
    <_>
      <rects>
        <_>
          3 9 15 3 -1.</_>
        <_>
          3 10 15 1 3.</_></rects>
      <tilted>0</tilted></_>
    <_>
      <rects>
        <_>
          3 9 21 15 -1.</_>
        <_>
          3 14 21 5 3.</_></rects>
      <tilted>0</tilted></_>
    <_>
      <rects>
        <_>
          3 10 18 3 -1.</_>
        <_>
          3 11 18 1 3.</_></rects>
      <tilted>0</tilted></_>
    <_>
      <rects>
        <_>
          3 13 18 3 -1.</_>
        <_>
          3 14 18 1 3.</_></rects>
      <tilted>0</tilted></_>
    <_>
      <rects>
        <_>
          3 15 12 3 -1.</_>
        <_>
          3 16 12 1 3.</_></rects>
      <tilted>0</tilted></_>
    <_>
      <rects>
        <_>
          3 17 14 3 -1.</_>
        <_>
          3 18 14 1 3.</_></rects>
      <tilted>0</tilted></_>
    <_>
      <rects>
        <_>
          3 17 17 2 -1.</_>
        <_>
          3 18 17 1 2.</_></rects>
      <tilted>0</tilted></_>
    <_>
      <rects>
        <_>
          3 17 21 2 -1.</_>
        <_>
          3 18 21 1 2.</_></rects>
      <tilted>0</tilted></_>
    <_>
      <rects>
        <_>
          3 19 14 3 -1.</_>
        <_>
          3 20 14 1 3.</_></rects>
      <tilted>0</tilted></_>
    <_>
      <rects>
        <_>
          3 21 10 3 -1.</_>
        <_>
          3 22 10 1 3.</_></rects>
      <tilted>0</tilted></_>
    <_>
      <rects>
        <_>
          3 21 17 2 -1.</_>
        <_>
          3 22 17 1 2.</_></rects>
      <tilted>0</tilted></_>
    <_>
      <rects>
        <_>
          3 23 6 1 -1.</_>
        <_>
          5 23 2 1 3.</_></rects>
      <tilted>0</tilted></_>
    <_>
      <rects>
        <_>
          3 23 9 1 -1.</_>
        <_>
          6 23 3 1 3.</_></rects>
      <tilted>0</tilted></_>
    <_>
      <rects>
        <_>
          4 1 15 3 -1.</_>
        <_>
          4 2 15 1 3.</_></rects>
      <tilted>0</tilted></_>
    <_>
      <rects>
        <_>
          4 9 13 10 -1.</_>
        <_>
          4 14 13 5 2.</_></rects>
      <tilted>0</tilted></_>
    <_>
      <rects>
        <_>
          4 15 4 9 -1.</_>
        <_>
          4 18 4 3 3.</_></rects>
      <tilted>0</tilted></_>
    <_>
      <rects>
        <_>
          4 16 13 3 -1.</_>
        <_>
          4 17 13 1 3.</_></rects>
      <tilted>0</tilted></_>
    <_>
      <rects>
        <_>
          4 16 18 3 -1.</_>
        <_>
          4 17 18 1 3.</_></rects>
      <tilted>0</tilted></_>
    <_>
      <rects>
        <_>
          4 17 8 3 -1.</_>
        <_>
          4 18 8 1 3.</_></rects>
      <tilted>0</tilted></_>
    <_>
      <rects>
        <_>
          4 18 20 3 -1.</_>
        <_>
          14 18 10 3 2.</_></rects>
      <tilted>0</tilted></_>
    <_>
      <rects>
        <_>
          4 18 18 3 -1.</_>
        <_>
          4 19 18 1 3.</_></rects>
      <tilted>0</tilted></_>
    <_>
      <rects>
        <_>
          4 19 12 3 -1.</_>
        <_>
          4 20 12 1 3.</_></rects>
      <tilted>0</tilted></_>
    <_>
      <rects>
        <_>
          4 19 13 3 -1.</_>
        <_>
          4 20 13 1 3.</_></rects>
      <tilted>0</tilted></_>
    <_>
      <rects>
        <_>
          4 19 16 3 -1.</_>
        <_>
          4 20 16 1 3.</_></rects>
      <tilted>0</tilted></_>
    <_>
      <rects>
        <_>
          4 20 13 3 -1.</_>
        <_>
          4 21 13 1 3.</_></rects>
      <tilted>0</tilted></_>
    <_>
      <rects>
        <_>
          4 23 4 1 -1.</_>
        <_>
          6 23 2 1 2.</_></rects>
      <tilted>0</tilted></_>
    <_>
      <rects>
        <_>
          5 0 10 9 -1.</_>
        <_>
          5 3 10 3 3.</_></rects>
      <tilted>0</tilted></_>
    <_>
      <rects>
        <_>
          5 0 13 3 -1.</_>
        <_>
          5 1 13 1 3.</_></rects>
      <tilted>0</tilted></_>
    <_>
      <rects>
        <_>
          5 2 12 22 -1.</_>
        <_>
          9 2 4 22 3.</_></rects>
      <tilted>0</tilted></_>
    <_>
      <rects>
        <_>
          5 8 16 3 -1.</_>
        <_>
          5 9 16 1 3.</_></rects>
      <tilted>0</tilted></_>
    <_>
      <rects>
        <_>
          5 11 19 3 -1.</_>
        <_>
          5 12 19 1 3.</_></rects>
      <tilted>0</tilted></_>
    <_>
      <rects>
        <_>
          5 15 15 7 -1.</_>
        <_>
          10 15 5 7 3.</_></rects>
      <tilted>0</tilted></_>
    <_>
      <rects>
        <_>
          5 15 10 3 -1.</_>
        <_>
          5 16 10 1 3.</_></rects>
      <tilted>0</tilted></_>
    <_>
      <rects>
        <_>
          5 16 6 2 -1.</_>
        <_>
          8 16 3 2 2.</_></rects>
      <tilted>0</tilted></_>
    <_>
      <rects>
        <_>
          5 16 8 1 -1.</_>
        <_>
          9 16 4 1 2.</_></rects>
      <tilted>0</tilted></_>
    <_>
      <rects>
        <_>
          5 17 15 6 -1.</_>
        <_>
          10 17 5 6 3.</_></rects>
      <tilted>0</tilted></_>
    <_>
      <rects>
        <_>
          5 17 9 3 -1.</_>
        <_>
          5 18 9 1 3.</_></rects>
      <tilted>0</tilted></_>
    <_>
      <rects>
        <_>
          5 18 12 3 -1.</_>
        <_>
          5 19 12 1 3.</_></rects>
      <tilted>0</tilted></_>
    <_>
      <rects>
        <_>
          5 20 12 3 -1.</_>
        <_>
          5 21 12 1 3.</_></rects>
      <tilted>0</tilted></_>
    <_>
      <rects>
        <_>
          5 23 6 1 -1.</_>
        <_>
          7 23 2 1 3.</_></rects>
      <tilted>0</tilted></_>
    <_>
      <rects>
        <_>
          6 0 2 8 -1.</_>
        <_>
          6 4 2 4 2.</_></rects>
      <tilted>0</tilted></_>
    <_>
      <rects>
        <_>
          6 0 3 3 -1.</_>
        <_>
          6 1 3 1 3.</_></rects>
      <tilted>0</tilted></_>
    <_>
      <rects>
        <_>
          6 0 6 12 -1.</_>
        <_>
          9 0 3 12 2.</_></rects>
      <tilted>0</tilted></_>
    <_>
